tree
version=v2
num_class=1
num_tree_per_iteration=1
label_index=0
max_feature_idx=2282
objective=regression
feature_names=Column_0 Column_1 Column_2 Column_3 Column_4 Column_5 Column_6 Column_7 Column_8 Column_9 Column_10 Column_11 Column_12 Column_13 Column_14 Column_15 Column_16 Column_17 Column_18 Column_19 Column_20 Column_21 Column_22 Column_23 Column_24 Column_25 Column_26 Column_27 Column_28 Column_29 Column_30 Column_31 Column_32 Column_33 Column_34 Column_35 Column_36 Column_37 Column_38 Column_39 Column_40 Column_41 Column_42 Column_43 Column_44 Column_45 Column_46 Column_47 Column_48 Column_49 Column_50 Column_51 Column_52 Column_53 Column_54 Column_55 Column_56 Column_57 Column_58 Column_59 Column_60 Column_61 Column_62 Column_63 Column_64 Column_65 Column_66 Column_67 Column_68 Column_69 Column_70 Column_71 Column_72 Column_73 Column_74 Column_75 Column_76 Column_77 Column_78 Column_79 Column_80 Column_81 Column_82 Column_83 Column_84 Column_85 Column_86 Column_87 Column_88 Column_89 Column_90 Column_91 Column_92 Column_93 Column_94 Column_95 Column_96 Column_97 Column_98 Column_99 Column_100 Column_101 Column_102 Column_103 Column_104 Column_105 Column_106 Column_107 Column_108 Column_109 Column_110 Column_111 Column_112 Column_113 Column_114 Column_115 Column_116 Column_117 Column_118 Column_119 Column_120 Column_121 Column_122 Column_123 Column_124 Column_125 Column_126 Column_127 Column_128 Column_129 Column_130 Column_131 Column_132 Column_133 Column_134 Column_135 Column_136 Column_137 Column_138 Column_139 Column_140 Column_141 Column_142 Column_143 Column_144 Column_145 Column_146 Column_147 Column_148 Column_149 Column_150 Column_151 Column_152 Column_153 Column_154 Column_155 Column_156 Column_157 Column_158 Column_159 Column_160 Column_161 Column_162 Column_163 Column_164 Column_165 Column_166 Column_167 Column_168 Column_169 Column_170 Column_171 Column_172 Column_173 Column_174 Column_175 Column_176 Column_177 Column_178 Column_179 Column_180 Column_181 Column_182 Column_183 Column_184 Column_185 Column_186 Column_187 Column_188 Column_189 Column_190 Column_191 Column_192 Column_193 Column_194 Column_195 Column_196 Column_197 Column_198 Column_199 Column_200 Column_201 Column_202 Column_203 Column_204 Column_205 Column_206 Column_207 Column_208 Column_209 Column_210 Column_211 Column_212 Column_213 Column_214 Column_215 Column_216 Column_217 Column_218 Column_219 Column_220 Column_221 Column_222 Column_223 Column_224 Column_225 Column_226 Column_227 Column_228 Column_229 Column_230 Column_231 Column_232 Column_233 Column_234 Column_235 Column_236 Column_237 Column_238 Column_239 Column_240 Column_241 Column_242 Column_243 Column_244 Column_245 Column_246 Column_247 Column_248 Column_249 Column_250 Column_251 Column_252 Column_253 Column_254 Column_255 Column_256 Column_257 Column_258 Column_259 Column_260 Column_261 Column_262 Column_263 Column_264 Column_265 Column_266 Column_267 Column_268 Column_269 Column_270 Column_271 Column_272 Column_273 Column_274 Column_275 Column_276 Column_277 Column_278 Column_279 Column_280 Column_281 Column_282 Column_283 Column_284 Column_285 Column_286 Column_287 Column_288 Column_289 Column_290 Column_291 Column_292 Column_293 Column_294 Column_295 Column_296 Column_297 Column_298 Column_299 Column_300 Column_301 Column_302 Column_303 Column_304 Column_305 Column_306 Column_307 Column_308 Column_309 Column_310 Column_311 Column_312 Column_313 Column_314 Column_315 Column_316 Column_317 Column_318 Column_319 Column_320 Column_321 Column_322 Column_323 Column_324 Column_325 Column_326 Column_327 Column_328 Column_329 Column_330 Column_331 Column_332 Column_333 Column_334 Column_335 Column_336 Column_337 Column_338 Column_339 Column_340 Column_341 Column_342 Column_343 Column_344 Column_345 Column_346 Column_347 Column_348 Column_349 Column_350 Column_351 Column_352 Column_353 Column_354 Column_355 Column_356 Column_357 Column_358 Column_359 Column_360 Column_361 Column_362 Column_363 Column_364 Column_365 Column_366 Column_367 Column_368 Column_369 Column_370 Column_371 Column_372 Column_373 Column_374 Column_375 Column_376 Column_377 Column_378 Column_379 Column_380 Column_381 Column_382 Column_383 Column_384 Column_385 Column_386 Column_387 Column_388 Column_389 Column_390 Column_391 Column_392 Column_393 Column_394 Column_395 Column_396 Column_397 Column_398 Column_399 Column_400 Column_401 Column_402 Column_403 Column_404 Column_405 Column_406 Column_407 Column_408 Column_409 Column_410 Column_411 Column_412 Column_413 Column_414 Column_415 Column_416 Column_417 Column_418 Column_419 Column_420 Column_421 Column_422 Column_423 Column_424 Column_425 Column_426 Column_427 Column_428 Column_429 Column_430 Column_431 Column_432 Column_433 Column_434 Column_435 Column_436 Column_437 Column_438 Column_439 Column_440 Column_441 Column_442 Column_443 Column_444 Column_445 Column_446 Column_447 Column_448 Column_449 Column_450 Column_451 Column_452 Column_453 Column_454 Column_455 Column_456 Column_457 Column_458 Column_459 Column_460 Column_461 Column_462 Column_463 Column_464 Column_465 Column_466 Column_467 Column_468 Column_469 Column_470 Column_471 Column_472 Column_473 Column_474 Column_475 Column_476 Column_477 Column_478 Column_479 Column_480 Column_481 Column_482 Column_483 Column_484 Column_485 Column_486 Column_487 Column_488 Column_489 Column_490 Column_491 Column_492 Column_493 Column_494 Column_495 Column_496 Column_497 Column_498 Column_499 Column_500 Column_501 Column_502 Column_503 Column_504 Column_505 Column_506 Column_507 Column_508 Column_509 Column_510 Column_511 Column_512 Column_513 Column_514 Column_515 Column_516 Column_517 Column_518 Column_519 Column_520 Column_521 Column_522 Column_523 Column_524 Column_525 Column_526 Column_527 Column_528 Column_529 Column_530 Column_531 Column_532 Column_533 Column_534 Column_535 Column_536 Column_537 Column_538 Column_539 Column_540 Column_541 Column_542 Column_543 Column_544 Column_545 Column_546 Column_547 Column_548 Column_549 Column_550 Column_551 Column_552 Column_553 Column_554 Column_555 Column_556 Column_557 Column_558 Column_559 Column_560 Column_561 Column_562 Column_563 Column_564 Column_565 Column_566 Column_567 Column_568 Column_569 Column_570 Column_571 Column_572 Column_573 Column_574 Column_575 Column_576 Column_577 Column_578 Column_579 Column_580 Column_581 Column_582 Column_583 Column_584 Column_585 Column_586 Column_587 Column_588 Column_589 Column_590 Column_591 Column_592 Column_593 Column_594 Column_595 Column_596 Column_597 Column_598 Column_599 Column_600 Column_601 Column_602 Column_603 Column_604 Column_605 Column_606 Column_607 Column_608 Column_609 Column_610 Column_611 Column_612 Column_613 Column_614 Column_615 Column_616 Column_617 Column_618 Column_619 Column_620 Column_621 Column_622 Column_623 Column_624 Column_625 Column_626 Column_627 Column_628 Column_629 Column_630 Column_631 Column_632 Column_633 Column_634 Column_635 Column_636 Column_637 Column_638 Column_639 Column_640 Column_641 Column_642 Column_643 Column_644 Column_645 Column_646 Column_647 Column_648 Column_649 Column_650 Column_651 Column_652 Column_653 Column_654 Column_655 Column_656 Column_657 Column_658 Column_659 Column_660 Column_661 Column_662 Column_663 Column_664 Column_665 Column_666 Column_667 Column_668 Column_669 Column_670 Column_671 Column_672 Column_673 Column_674 Column_675 Column_676 Column_677 Column_678 Column_679 Column_680 Column_681 Column_682 Column_683 Column_684 Column_685 Column_686 Column_687 Column_688 Column_689 Column_690 Column_691 Column_692 Column_693 Column_694 Column_695 Column_696 Column_697 Column_698 Column_699 Column_700 Column_701 Column_702 Column_703 Column_704 Column_705 Column_706 Column_707 Column_708 Column_709 Column_710 Column_711 Column_712 Column_713 Column_714 Column_715 Column_716 Column_717 Column_718 Column_719 Column_720 Column_721 Column_722 Column_723 Column_724 Column_725 Column_726 Column_727 Column_728 Column_729 Column_730 Column_731 Column_732 Column_733 Column_734 Column_735 Column_736 Column_737 Column_738 Column_739 Column_740 Column_741 Column_742 Column_743 Column_744 Column_745 Column_746 Column_747 Column_748 Column_749 Column_750 Column_751 Column_752 Column_753 Column_754 Column_755 Column_756 Column_757 Column_758 Column_759 Column_760 Column_761 Column_762 Column_763 Column_764 Column_765 Column_766 Column_767 Column_768 Column_769 Column_770 Column_771 Column_772 Column_773 Column_774 Column_775 Column_776 Column_777 Column_778 Column_779 Column_780 Column_781 Column_782 Column_783 Column_784 Column_785 Column_786 Column_787 Column_788 Column_789 Column_790 Column_791 Column_792 Column_793 Column_794 Column_795 Column_796 Column_797 Column_798 Column_799 Column_800 Column_801 Column_802 Column_803 Column_804 Column_805 Column_806 Column_807 Column_808 Column_809 Column_810 Column_811 Column_812 Column_813 Column_814 Column_815 Column_816 Column_817 Column_818 Column_819 Column_820 Column_821 Column_822 Column_823 Column_824 Column_825 Column_826 Column_827 Column_828 Column_829 Column_830 Column_831 Column_832 Column_833 Column_834 Column_835 Column_836 Column_837 Column_838 Column_839 Column_840 Column_841 Column_842 Column_843 Column_844 Column_845 Column_846 Column_847 Column_848 Column_849 Column_850 Column_851 Column_852 Column_853 Column_854 Column_855 Column_856 Column_857 Column_858 Column_859 Column_860 Column_861 Column_862 Column_863 Column_864 Column_865 Column_866 Column_867 Column_868 Column_869 Column_870 Column_871 Column_872 Column_873 Column_874 Column_875 Column_876 Column_877 Column_878 Column_879 Column_880 Column_881 Column_882 Column_883 Column_884 Column_885 Column_886 Column_887 Column_888 Column_889 Column_890 Column_891 Column_892 Column_893 Column_894 Column_895 Column_896 Column_897 Column_898 Column_899 Column_900 Column_901 Column_902 Column_903 Column_904 Column_905 Column_906 Column_907 Column_908 Column_909 Column_910 Column_911 Column_912 Column_913 Column_914 Column_915 Column_916 Column_917 Column_918 Column_919 Column_920 Column_921 Column_922 Column_923 Column_924 Column_925 Column_926 Column_927 Column_928 Column_929 Column_930 Column_931 Column_932 Column_933 Column_934 Column_935 Column_936 Column_937 Column_938 Column_939 Column_940 Column_941 Column_942 Column_943 Column_944 Column_945 Column_946 Column_947 Column_948 Column_949 Column_950 Column_951 Column_952 Column_953 Column_954 Column_955 Column_956 Column_957 Column_958 Column_959 Column_960 Column_961 Column_962 Column_963 Column_964 Column_965 Column_966 Column_967 Column_968 Column_969 Column_970 Column_971 Column_972 Column_973 Column_974 Column_975 Column_976 Column_977 Column_978 Column_979 Column_980 Column_981 Column_982 Column_983 Column_984 Column_985 Column_986 Column_987 Column_988 Column_989 Column_990 Column_991 Column_992 Column_993 Column_994 Column_995 Column_996 Column_997 Column_998 Column_999 Column_1000 Column_1001 Column_1002 Column_1003 Column_1004 Column_1005 Column_1006 Column_1007 Column_1008 Column_1009 Column_1010 Column_1011 Column_1012 Column_1013 Column_1014 Column_1015 Column_1016 Column_1017 Column_1018 Column_1019 Column_1020 Column_1021 Column_1022 Column_1023 Column_1024 Column_1025 Column_1026 Column_1027 Column_1028 Column_1029 Column_1030 Column_1031 Column_1032 Column_1033 Column_1034 Column_1035 Column_1036 Column_1037 Column_1038 Column_1039 Column_1040 Column_1041 Column_1042 Column_1043 Column_1044 Column_1045 Column_1046 Column_1047 Column_1048 Column_1049 Column_1050 Column_1051 Column_1052 Column_1053 Column_1054 Column_1055 Column_1056 Column_1057 Column_1058 Column_1059 Column_1060 Column_1061 Column_1062 Column_1063 Column_1064 Column_1065 Column_1066 Column_1067 Column_1068 Column_1069 Column_1070 Column_1071 Column_1072 Column_1073 Column_1074 Column_1075 Column_1076 Column_1077 Column_1078 Column_1079 Column_1080 Column_1081 Column_1082 Column_1083 Column_1084 Column_1085 Column_1086 Column_1087 Column_1088 Column_1089 Column_1090 Column_1091 Column_1092 Column_1093 Column_1094 Column_1095 Column_1096 Column_1097 Column_1098 Column_1099 Column_1100 Column_1101 Column_1102 Column_1103 Column_1104 Column_1105 Column_1106 Column_1107 Column_1108 Column_1109 Column_1110 Column_1111 Column_1112 Column_1113 Column_1114 Column_1115 Column_1116 Column_1117 Column_1118 Column_1119 Column_1120 Column_1121 Column_1122 Column_1123 Column_1124 Column_1125 Column_1126 Column_1127 Column_1128 Column_1129 Column_1130 Column_1131 Column_1132 Column_1133 Column_1134 Column_1135 Column_1136 Column_1137 Column_1138 Column_1139 Column_1140 Column_1141 Column_1142 Column_1143 Column_1144 Column_1145 Column_1146 Column_1147 Column_1148 Column_1149 Column_1150 Column_1151 Column_1152 Column_1153 Column_1154 Column_1155 Column_1156 Column_1157 Column_1158 Column_1159 Column_1160 Column_1161 Column_1162 Column_1163 Column_1164 Column_1165 Column_1166 Column_1167 Column_1168 Column_1169 Column_1170 Column_1171 Column_1172 Column_1173 Column_1174 Column_1175 Column_1176 Column_1177 Column_1178 Column_1179 Column_1180 Column_1181 Column_1182 Column_1183 Column_1184 Column_1185 Column_1186 Column_1187 Column_1188 Column_1189 Column_1190 Column_1191 Column_1192 Column_1193 Column_1194 Column_1195 Column_1196 Column_1197 Column_1198 Column_1199 Column_1200 Column_1201 Column_1202 Column_1203 Column_1204 Column_1205 Column_1206 Column_1207 Column_1208 Column_1209 Column_1210 Column_1211 Column_1212 Column_1213 Column_1214 Column_1215 Column_1216 Column_1217 Column_1218 Column_1219 Column_1220 Column_1221 Column_1222 Column_1223 Column_1224 Column_1225 Column_1226 Column_1227 Column_1228 Column_1229 Column_1230 Column_1231 Column_1232 Column_1233 Column_1234 Column_1235 Column_1236 Column_1237 Column_1238 Column_1239 Column_1240 Column_1241 Column_1242 Column_1243 Column_1244 Column_1245 Column_1246 Column_1247 Column_1248 Column_1249 Column_1250 Column_1251 Column_1252 Column_1253 Column_1254 Column_1255 Column_1256 Column_1257 Column_1258 Column_1259 Column_1260 Column_1261 Column_1262 Column_1263 Column_1264 Column_1265 Column_1266 Column_1267 Column_1268 Column_1269 Column_1270 Column_1271 Column_1272 Column_1273 Column_1274 Column_1275 Column_1276 Column_1277 Column_1278 Column_1279 Column_1280 Column_1281 Column_1282 Column_1283 Column_1284 Column_1285 Column_1286 Column_1287 Column_1288 Column_1289 Column_1290 Column_1291 Column_1292 Column_1293 Column_1294 Column_1295 Column_1296 Column_1297 Column_1298 Column_1299 Column_1300 Column_1301 Column_1302 Column_1303 Column_1304 Column_1305 Column_1306 Column_1307 Column_1308 Column_1309 Column_1310 Column_1311 Column_1312 Column_1313 Column_1314 Column_1315 Column_1316 Column_1317 Column_1318 Column_1319 Column_1320 Column_1321 Column_1322 Column_1323 Column_1324 Column_1325 Column_1326 Column_1327 Column_1328 Column_1329 Column_1330 Column_1331 Column_1332 Column_1333 Column_1334 Column_1335 Column_1336 Column_1337 Column_1338 Column_1339 Column_1340 Column_1341 Column_1342 Column_1343 Column_1344 Column_1345 Column_1346 Column_1347 Column_1348 Column_1349 Column_1350 Column_1351 Column_1352 Column_1353 Column_1354 Column_1355 Column_1356 Column_1357 Column_1358 Column_1359 Column_1360 Column_1361 Column_1362 Column_1363 Column_1364 Column_1365 Column_1366 Column_1367 Column_1368 Column_1369 Column_1370 Column_1371 Column_1372 Column_1373 Column_1374 Column_1375 Column_1376 Column_1377 Column_1378 Column_1379 Column_1380 Column_1381 Column_1382 Column_1383 Column_1384 Column_1385 Column_1386 Column_1387 Column_1388 Column_1389 Column_1390 Column_1391 Column_1392 Column_1393 Column_1394 Column_1395 Column_1396 Column_1397 Column_1398 Column_1399 Column_1400 Column_1401 Column_1402 Column_1403 Column_1404 Column_1405 Column_1406 Column_1407 Column_1408 Column_1409 Column_1410 Column_1411 Column_1412 Column_1413 Column_1414 Column_1415 Column_1416 Column_1417 Column_1418 Column_1419 Column_1420 Column_1421 Column_1422 Column_1423 Column_1424 Column_1425 Column_1426 Column_1427 Column_1428 Column_1429 Column_1430 Column_1431 Column_1432 Column_1433 Column_1434 Column_1435 Column_1436 Column_1437 Column_1438 Column_1439 Column_1440 Column_1441 Column_1442 Column_1443 Column_1444 Column_1445 Column_1446 Column_1447 Column_1448 Column_1449 Column_1450 Column_1451 Column_1452 Column_1453 Column_1454 Column_1455 Column_1456 Column_1457 Column_1458 Column_1459 Column_1460 Column_1461 Column_1462 Column_1463 Column_1464 Column_1465 Column_1466 Column_1467 Column_1468 Column_1469 Column_1470 Column_1471 Column_1472 Column_1473 Column_1474 Column_1475 Column_1476 Column_1477 Column_1478 Column_1479 Column_1480 Column_1481 Column_1482 Column_1483 Column_1484 Column_1485 Column_1486 Column_1487 Column_1488 Column_1489 Column_1490 Column_1491 Column_1492 Column_1493 Column_1494 Column_1495 Column_1496 Column_1497 Column_1498 Column_1499 Column_1500 Column_1501 Column_1502 Column_1503 Column_1504 Column_1505 Column_1506 Column_1507 Column_1508 Column_1509 Column_1510 Column_1511 Column_1512 Column_1513 Column_1514 Column_1515 Column_1516 Column_1517 Column_1518 Column_1519 Column_1520 Column_1521 Column_1522 Column_1523 Column_1524 Column_1525 Column_1526 Column_1527 Column_1528 Column_1529 Column_1530 Column_1531 Column_1532 Column_1533 Column_1534 Column_1535 Column_1536 Column_1537 Column_1538 Column_1539 Column_1540 Column_1541 Column_1542 Column_1543 Column_1544 Column_1545 Column_1546 Column_1547 Column_1548 Column_1549 Column_1550 Column_1551 Column_1552 Column_1553 Column_1554 Column_1555 Column_1556 Column_1557 Column_1558 Column_1559 Column_1560 Column_1561 Column_1562 Column_1563 Column_1564 Column_1565 Column_1566 Column_1567 Column_1568 Column_1569 Column_1570 Column_1571 Column_1572 Column_1573 Column_1574 Column_1575 Column_1576 Column_1577 Column_1578 Column_1579 Column_1580 Column_1581 Column_1582 Column_1583 Column_1584 Column_1585 Column_1586 Column_1587 Column_1588 Column_1589 Column_1590 Column_1591 Column_1592 Column_1593 Column_1594 Column_1595 Column_1596 Column_1597 Column_1598 Column_1599 Column_1600 Column_1601 Column_1602 Column_1603 Column_1604 Column_1605 Column_1606 Column_1607 Column_1608 Column_1609 Column_1610 Column_1611 Column_1612 Column_1613 Column_1614 Column_1615 Column_1616 Column_1617 Column_1618 Column_1619 Column_1620 Column_1621 Column_1622 Column_1623 Column_1624 Column_1625 Column_1626 Column_1627 Column_1628 Column_1629 Column_1630 Column_1631 Column_1632 Column_1633 Column_1634 Column_1635 Column_1636 Column_1637 Column_1638 Column_1639 Column_1640 Column_1641 Column_1642 Column_1643 Column_1644 Column_1645 Column_1646 Column_1647 Column_1648 Column_1649 Column_1650 Column_1651 Column_1652 Column_1653 Column_1654 Column_1655 Column_1656 Column_1657 Column_1658 Column_1659 Column_1660 Column_1661 Column_1662 Column_1663 Column_1664 Column_1665 Column_1666 Column_1667 Column_1668 Column_1669 Column_1670 Column_1671 Column_1672 Column_1673 Column_1674 Column_1675 Column_1676 Column_1677 Column_1678 Column_1679 Column_1680 Column_1681 Column_1682 Column_1683 Column_1684 Column_1685 Column_1686 Column_1687 Column_1688 Column_1689 Column_1690 Column_1691 Column_1692 Column_1693 Column_1694 Column_1695 Column_1696 Column_1697 Column_1698 Column_1699 Column_1700 Column_1701 Column_1702 Column_1703 Column_1704 Column_1705 Column_1706 Column_1707 Column_1708 Column_1709 Column_1710 Column_1711 Column_1712 Column_1713 Column_1714 Column_1715 Column_1716 Column_1717 Column_1718 Column_1719 Column_1720 Column_1721 Column_1722 Column_1723 Column_1724 Column_1725 Column_1726 Column_1727 Column_1728 Column_1729 Column_1730 Column_1731 Column_1732 Column_1733 Column_1734 Column_1735 Column_1736 Column_1737 Column_1738 Column_1739 Column_1740 Column_1741 Column_1742 Column_1743 Column_1744 Column_1745 Column_1746 Column_1747 Column_1748 Column_1749 Column_1750 Column_1751 Column_1752 Column_1753 Column_1754 Column_1755 Column_1756 Column_1757 Column_1758 Column_1759 Column_1760 Column_1761 Column_1762 Column_1763 Column_1764 Column_1765 Column_1766 Column_1767 Column_1768 Column_1769 Column_1770 Column_1771 Column_1772 Column_1773 Column_1774 Column_1775 Column_1776 Column_1777 Column_1778 Column_1779 Column_1780 Column_1781 Column_1782 Column_1783 Column_1784 Column_1785 Column_1786 Column_1787 Column_1788 Column_1789 Column_1790 Column_1791 Column_1792 Column_1793 Column_1794 Column_1795 Column_1796 Column_1797 Column_1798 Column_1799 Column_1800 Column_1801 Column_1802 Column_1803 Column_1804 Column_1805 Column_1806 Column_1807 Column_1808 Column_1809 Column_1810 Column_1811 Column_1812 Column_1813 Column_1814 Column_1815 Column_1816 Column_1817 Column_1818 Column_1819 Column_1820 Column_1821 Column_1822 Column_1823 Column_1824 Column_1825 Column_1826 Column_1827 Column_1828 Column_1829 Column_1830 Column_1831 Column_1832 Column_1833 Column_1834 Column_1835 Column_1836 Column_1837 Column_1838 Column_1839 Column_1840 Column_1841 Column_1842 Column_1843 Column_1844 Column_1845 Column_1846 Column_1847 Column_1848 Column_1849 Column_1850 Column_1851 Column_1852 Column_1853 Column_1854 Column_1855 Column_1856 Column_1857 Column_1858 Column_1859 Column_1860 Column_1861 Column_1862 Column_1863 Column_1864 Column_1865 Column_1866 Column_1867 Column_1868 Column_1869 Column_1870 Column_1871 Column_1872 Column_1873 Column_1874 Column_1875 Column_1876 Column_1877 Column_1878 Column_1879 Column_1880 Column_1881 Column_1882 Column_1883 Column_1884 Column_1885 Column_1886 Column_1887 Column_1888 Column_1889 Column_1890 Column_1891 Column_1892 Column_1893 Column_1894 Column_1895 Column_1896 Column_1897 Column_1898 Column_1899 Column_1900 Column_1901 Column_1902 Column_1903 Column_1904 Column_1905 Column_1906 Column_1907 Column_1908 Column_1909 Column_1910 Column_1911 Column_1912 Column_1913 Column_1914 Column_1915 Column_1916 Column_1917 Column_1918 Column_1919 Column_1920 Column_1921 Column_1922 Column_1923 Column_1924 Column_1925 Column_1926 Column_1927 Column_1928 Column_1929 Column_1930 Column_1931 Column_1932 Column_1933 Column_1934 Column_1935 Column_1936 Column_1937 Column_1938 Column_1939 Column_1940 Column_1941 Column_1942 Column_1943 Column_1944 Column_1945 Column_1946 Column_1947 Column_1948 Column_1949 Column_1950 Column_1951 Column_1952 Column_1953 Column_1954 Column_1955 Column_1956 Column_1957 Column_1958 Column_1959 Column_1960 Column_1961 Column_1962 Column_1963 Column_1964 Column_1965 Column_1966 Column_1967 Column_1968 Column_1969 Column_1970 Column_1971 Column_1972 Column_1973 Column_1974 Column_1975 Column_1976 Column_1977 Column_1978 Column_1979 Column_1980 Column_1981 Column_1982 Column_1983 Column_1984 Column_1985 Column_1986 Column_1987 Column_1988 Column_1989 Column_1990 Column_1991 Column_1992 Column_1993 Column_1994 Column_1995 Column_1996 Column_1997 Column_1998 Column_1999 Column_2000 Column_2001 Column_2002 Column_2003 Column_2004 Column_2005 Column_2006 Column_2007 Column_2008 Column_2009 Column_2010 Column_2011 Column_2012 Column_2013 Column_2014 Column_2015 Column_2016 Column_2017 Column_2018 Column_2019 Column_2020 Column_2021 Column_2022 Column_2023 Column_2024 Column_2025 Column_2026 Column_2027 Column_2028 Column_2029 Column_2030 Column_2031 Column_2032 Column_2033 Column_2034 Column_2035 Column_2036 Column_2037 Column_2038 Column_2039 Column_2040 Column_2041 Column_2042 Column_2043 Column_2044 Column_2045 Column_2046 Column_2047 Column_2048 Column_2049 Column_2050 Column_2051 Column_2052 Column_2053 Column_2054 Column_2055 Column_2056 Column_2057 Column_2058 Column_2059 Column_2060 Column_2061 Column_2062 Column_2063 Column_2064 Column_2065 Column_2066 Column_2067 Column_2068 Column_2069 Column_2070 Column_2071 Column_2072 Column_2073 Column_2074 Column_2075 Column_2076 Column_2077 Column_2078 Column_2079 Column_2080 Column_2081 Column_2082 Column_2083 Column_2084 Column_2085 Column_2086 Column_2087 Column_2088 Column_2089 Column_2090 Column_2091 Column_2092 Column_2093 Column_2094 Column_2095 Column_2096 Column_2097 Column_2098 Column_2099 Column_2100 Column_2101 Column_2102 Column_2103 Column_2104 Column_2105 Column_2106 Column_2107 Column_2108 Column_2109 Column_2110 Column_2111 Column_2112 Column_2113 Column_2114 Column_2115 Column_2116 Column_2117 Column_2118 Column_2119 Column_2120 Column_2121 Column_2122 Column_2123 Column_2124 Column_2125 Column_2126 Column_2127 Column_2128 Column_2129 Column_2130 Column_2131 Column_2132 Column_2133 Column_2134 Column_2135 Column_2136 Column_2137 Column_2138 Column_2139 Column_2140 Column_2141 Column_2142 Column_2143 Column_2144 Column_2145 Column_2146 Column_2147 Column_2148 Column_2149 Column_2150 Column_2151 Column_2152 Column_2153 Column_2154 Column_2155 Column_2156 Column_2157 Column_2158 Column_2159 Column_2160 Column_2161 Column_2162 Column_2163 Column_2164 Column_2165 Column_2166 Column_2167 Column_2168 Column_2169 Column_2170 Column_2171 Column_2172 Column_2173 Column_2174 Column_2175 Column_2176 Column_2177 Column_2178 Column_2179 Column_2180 Column_2181 Column_2182 Column_2183 Column_2184 Column_2185 Column_2186 Column_2187 Column_2188 Column_2189 Column_2190 Column_2191 Column_2192 Column_2193 Column_2194 Column_2195 Column_2196 Column_2197 Column_2198 Column_2199 Column_2200 Column_2201 Column_2202 Column_2203 Column_2204 Column_2205 Column_2206 Column_2207 Column_2208 Column_2209 Column_2210 Column_2211 Column_2212 Column_2213 Column_2214 Column_2215 Column_2216 Column_2217 Column_2218 Column_2219 Column_2220 Column_2221 Column_2222 Column_2223 Column_2224 Column_2225 Column_2226 Column_2227 Column_2228 Column_2229 Column_2230 Column_2231 Column_2232 Column_2233 Column_2234 Column_2235 Column_2236 Column_2237 Column_2238 Column_2239 Column_2240 Column_2241 Column_2242 Column_2243 Column_2244 Column_2245 Column_2246 Column_2247 Column_2248 Column_2249 Column_2250 Column_2251 Column_2252 Column_2253 Column_2254 Column_2255 Column_2256 Column_2257 Column_2258 Column_2259 Column_2260 Column_2261 Column_2262 Column_2263 Column_2264 Column_2265 Column_2266 Column_2267 Column_2268 Column_2269 Column_2270 Column_2271 Column_2272 Column_2273 Column_2274 Column_2275 Column_2276 Column_2277 Column_2278 Column_2279 Column_2280 Column_2281 Column_2282
feature_infos=none [0:1] [0:1] none [0:1] none [0:1] [0:1] [0:1] [0:1] [0:1] [0:1] [0:1] [0:1] [0:1] [0:1] [0:1] [0:1] [0:1] [0:1] [0:1] [0:1] [0:1] [0:1] [0:1] none [0:1] [0:1] [0:1] [0:1] [0:1] [0:1] [0:1] [0:1] [0:1] [0:1] [0:1] [0:1] [0:1] [0:1] [0:1] [0:1] [0:1] [0:1] [0:1] [0:1] [0:1] [0:1] [0:1] [0:1] [0:1] [0:1] [0:1] [0:1] [0:1] [0:1] [0:1] [0:1] [0:1] [0:1] [0:1] [0:1] [0:1] [0:1] [0:1] [0:1] [0:1] [0:1] [0:1] [0:1] [0:1] [0:1] [0:1] [0:1] [0:1] [0:1] [0:1] [0:1] [0:1] [0:1] [0:1] [0:1] [0:1] [0:1] [0:1] [0:1] [0:1] [0:1] [0:1] [0:1] [0:1] [0:1] [0:1] [0:1] [0:1] [0:1] [0:1] [0:1] [0:1] [0:1] [0:1] [0:1] [0:1] [0:1] [0:1] [0:1] [0:1] [0:1] [0:1] [0:1] [0:1] [0:1] [0:1] [0:1] [0:1] [0:1] [0:1] [0:1] [0:1] [0:1] [0:1] none [0:1] [0:1] [0:1] [0:1] [0:1] [0:1] [0:1] [0:1] [0:1] [0:1] [0:1] [0:1] [0:1] [0:1] [0:1] [0:1] [0:1] [0:1] [0:1] [0:1] [0:1] none [0:1] [0:1] [0:1] [0:1] [0:1] [0:1] none [0:1] none none none [0:1] [0:1] [0:1] [0:1] [0:1] [0:1] [0:1] [0:1] [0:1] [0:1] [0:1] [0:1] [0:1] [0:1] [0:1] [0:1] [0:1] [0:1] [0:1] [0:1] [0:1] [0:1] [0:1] [0:1] [0:1] [0:1] [0:1] [0:1] [0:1] none [0:1] none [0:1] none [0:1] [0:1] [0:1] [0:1] [0:1] [0:1] [0:1] none none none none [0:1] none [0:1] [0:1] [0:1] [0:1] [0:1] [0:1] none [0:1] [0:1] [0:1] [0:1] [0:1] [0:1] [0:1] [0:1] none [0:1] [0:1] [0:1] [0:1] [0:1] [0:1] [0:1] [0:1] [0:1] [0:1] [0:1] [0:1] [0:1] [0:1] [0:1] [0:1] [0:1] [0:1] [0:1] [0:1] [0:1] [0:1] [0:1] [0:1] [0:1] none [0:1] [0:1] [0:1] [0:1] [0:1] [0:1] [0:1] none [0:1] [0:1] [0:1] [0:1] [0:1] none [0:1] [0:1] [0:1] [0:1] [0:1] [0:1] [0:1] [0:1] [0:1] [0:1] [0:1] [0:1] [0:1] none [0:1] [0:1] [0:1] [0:1] [0:1] [0:1] [0:1] [0:1] [0:1] [0:1] [0:1] none [0:1] none none [0:1] [0:1] [0:1] [0:1] [0:1] [0:1] none none none [0:1] [0:1] [0:1] [0:1] [0:1] [0:1] [0:1] [0:1] [0:1] none [0:1] [0:1] [0:1] [0:1] [0:1] [0:1] [0:1] [0:1] [0:1] [0:1] [0:1] none [0:1] [0:1] none [0:1] none [0:1] [0:1] [0:1] none [0:1] none [0:1] [0:1] none [0:1] [0:1] none [0:1] [0:1] [0:1] none [0:1] [0:1] [0:1] [0:1] [0:1] [0:1] [0:1] [0:1] [0:1] [0:1] [0:1] [0:1] [0:1] [0:1] [0:1] [0:1] [0:1] [0:1] [0:1] [0:1] [0:1] [0:1] none [0:1] [0:1] [0:1] [0:1] [0:1] [0:1] [0:1] [0:1] [0:1] [0:1] none [0:1] [0:1] none [0:1] [0:1] [0:1] [0:1] [0:1] [0:1] [0:1] [0:1] [0:1] none [0:1] [0:1] [0:1] none [0:1] [0:1] [0:1] none none none none [0:1] [0:1] [0:1] [0:1] [0:1] [0:1] none none none none none none none none none [0:1] none [0:1] [0:1] [0:1] [0:1] [0:1] [0:1] [0:1] [0:1] [0:1] none [0:1] [0:1] [0:1] [0:1] none [0:1] [0:1] [0:1] [0:1] [0:1] [0:1] [0:1] [0:1] [0:1] [0:1] [0:1] [0:1] [0:1] [0:1] [0:1] [0:1] [0:1] [0:1] [0:1] [0:1] [0:1] none none [0:1] none [0:1] none none [0:1] [0:1] none none none [0:1] none none [0:1] none none none [0:1] [0:1] [0:1] [0:1] [0:1] [0:1] [0:1] [0:1] [0:1] [0:1] [0:1] [0:1] [0:1] none none [0:1] [0:1] none [0:1] [0:1] none [0:1] [0:1] none [0:1] none [0:1] [0:1] [0:1] [0:1] [0:1] [0:1] [0:1] [0:1] [0:1] [0:1] [0:1] none none none none none [0:1] [0:1] [0:1] [0:1] [0:1] [0:1] [0:1] [0:1] [0:1] [0:1] [0:1] [0:1] none none none [0:1] [0:1] [0:1] none none none [0:1] none none none none none none [0:1] [0:1] [0:1] [0:1] [0:1] [0:1] [0:1] [0:1] none none none [0:1] [0:1] [0:1] [0:1] none none [0:1] none none [0:1] none [0:1] none [0:1] none none [0:1] none none none [0:1] none none none none [0:1] [0:1] none none [0:1] [0:1] none [0:1] [0:1] none none none [0:1] [0:1] [0:1] [0:1] none none [0:1] [0:1] [0:1] [0:1] [0:1] [0:1] [0:1] none [0:1] [0:1] [0:1] [0:1] [0:1] [0:1] [0:1] [0:1] none [0:1] [0:1] [0:1] [0:1] [0:1] [0:1] none [0:1] [0:1] [0:1] [0:1] none none none none [0:1] none [0:1] [0:1] [0:1] [0:1] [0:1] [0:1] [0:1] none none none [0:1] none none none none none [0:1] [0:1] [0:1] none none none [0:1] none [0:1] [0:1] [0:1] none none none [0:1] none [0:1] none none [0:1] [0:1] [0:1] none [0:1] [0:1] [0:1] [0:1] [0:1] [0:1] none [0:1] [0:1] [0:1] none [0:1] [0:1] none none none [0:1] [0:1] [0:1] [0:1] none [0:1] [0:1] [0:1] [0:1] [0:1] [0:1] none [0:1] [0:1] [0:1] [0:1] [0:1] [0:1] none [0:1] none [0:1] [0:1] [0:1] [0:1] [0:1] [0:1] none none none none none none none [0:1] none none none none none [0:1] none [0:1] none none none [0:1] [0:1] [0:1] none [0:1] none [0:1] [0:1] none [0:1] none none none [0:1] none [0:1] [0:1] [0:1] [0:1] none [0:1] [0:1] [0:1] [0:1] [0:1] none none [0:1] none none none none [0:1] none [0:1] [0:1] [0:1] [0:1] [0:1] none [0:1] [0:1] none none [0:1] none none none none [0:1] [0:1] [0:1] [0:1] none none none [0:1] [0:1] [0:1] none [0:1] none [0:1] [0:1] none none [0:1] none [0:1] none none [0:1] [0:1] none [0:1] [0:1] none [0:1] none [0:1] none none none none none none none none none [0:1] [0:1] [0:1] [0:1] [0:1] [0:1] none [0:1] none [0:1] none [0:1] none [0:1] [0:1] [0:1] [0:1] none none none none [0:1] none none none [0:1] [0:1] none none none none none none none [0:1] none none none none [0:1] [0:1] [0:1] none none [0:1] none [0:1] [0:1] none none [0:1] none none [0:1] [0:1] [0:1] none [0:1] [0:1] none [0:1] [0:1] none [0:1] [0:1] none [0:1] [0:1] [0:1] [0:1] none [0:1] [0:1] [0:1] [0:1] none none [0:1] none [0:1] [0:1] [0:1] [0:1] [0:1] [0:1] [0:1] none none none none none [0:1] none [0:1] none none none none [0:1] [0:1] none [0:1] none none [0:1] [0:1] none [0:1] [0:1] [0:1] none [0:1] none [0:1] [0:1] none none none none none [0:1] none none none [0:1] none none none none none none none [0:1] [0:1] [0:1] [0:1] [0:1] [0:1] [0:1] [0:1] [0:1] [0:1] [0:1] [0:1] [0:1] [0:1] [0:1] [0:1] none none none none none none none none none none [0:1] none [0:1] none none [0:1] none none none none none none [0:1] none [0:1] none none none none none none none none none none [0:1] [0:1] [0:1] [0:1] [0:1] none [0:1] none none none none none none none none none [0:1] none none none none none none none [0:1] none none none [0:1] [0:1] [0:1] [0:1] none [0:1] none [0:1] none [0:1] none none none none none [0:1] none [0:1] none none none none none none none none none none none none none none [0:1] none none none none none none none [0:1] none none none none none none none none none none none none none none none none none none [0:1] none [0:1] none none [0:1] none [0:1] none [0:1] none none none none [0:1] [0:1] none none [0:1] [0:1] none none none none none none none none none none none none none none none none none none none none [0:1] [0:1] none none none [0:1] [0:1] none [0:1] [0:1] none none none [0:1] [0:1] none [0:1] none none none none none none none none none none none [0:1] [0:1] [0:1] none none none none none none none [0:1] [0:1] [0:1] [0:1] [0:1] none none [0:1] none none none none none [0:1] none none none none none [0:1] [0:1] [0:1] none none [0:1] none none none none none none [0:1] none none none none none none [0:1] none none none none [0:1] none [0:1] none none [0:1] none none none none none none [0:1] [0:1] none none none none none none none none none none none none none none none none none none none [0:1] none none none none none none none none none none none none none none none none none none none none [0:1] none none none none [0:1] none none none none none none none [0:1] [0:1] none none none [0:1] none none none none none none none none none none none none none none none none none none none none none none none none [0:1] [0:1] none none none none [0:1] none [0:1] [0:1] none [0:1] none none none none none none none none [0:1] [0:1] [0:1] [0:1] [0:1] [0:1] [0:1] [0:1] none none none [0:1] none none none none none none none none none [0:1] none none none none none none none none none none none none none none none none none none none none [0:1] none none [0:1] none none none none none none none none [0:1] [0:1] none [0:1] [0:1] [0:1] [0:1] [0:1] [0:1] [0:1] [0:1] [0:1] [0:1] [0:1] [0:1] [0:1] [0:1] none none none none none none [0:1] none none none none none none none none none none none none none none none none [0:1] none none [0:1] [0:1] none none none none none [0:1] none none none none none none none [0:1] [0:1] none none none none none none none none none none none none none none none none none none none none none none [0:1] none none [0:1] none none none none none none none none none none none none none [0:1] none none none none none none none none none none none none none none none none none none none none none none none none none none none none none none none none [0:1] [0:1] none none none none none none none none none none none none none none none [0:1] none none none none none none none none none none none none none none none none none none none none none none none none none none none none none none none none none none none none none none none [0:1] [0:1] none none none none none none none none none none [0:1] none none [0:1] none none none none none none [0:1] none none none none none none none [0:1] none none none none none none none none none none none none none [0:1] none none none [0:1] none none none none none none none none none none none none none none none none none none none none none none none none none none none none none none none none none none none none none none none none none none none none none none none none none none [0:1] none none none none none none none [0:1] none none none none none none none none none none none none none none none none none none none none none none none none none none none none none none none none none none none none none none none [0:1] [0:1] none none none none none none none none none none [0:1] none none none none none none none none none none none none none none none none none none none none none none none none none [0:1] none none none none none none none none none none none none none none none none none none none none none none none none none none none none none none none none none [0:1] none none none none none none none none none none none [0:1] none none none none none none none none none none none none none none none none none none none none none none none none none none none none none none none none none [0:1] [0:1] none none none none none none none none none none none none [0:1] [0:1] [0:1] [0:1] none none none none none none none none [0:1] [0:1] none none none none none none none none none none none none none none none none none none none none none none none none none none none [0:1] [0:1] [0:1] none none none none none none none none none none none [0:1] none none none none none none none none none none none none none [0:1] [0:1] [0:1] [0:1] none [0:1] [0:1] none none [0:1] none none none none none none none none none none none none none none none none none none none none none none none none none none none none none none none none none none none none none none none none none none none none none none none none none none none none none none none none none none none none none none none none none none none none none none none none none none none none none none none none none none none none none none none none none none none none none none none none none none none none none none none none none none none none none none none none [0:1] none none none [0:1] [0:1] [0:1] none none none [0:1] [0:1] [0:1] [0:1] none none none none none none none none none none none none [0:1] none none none none none none none none [0:1] none none none none none none none none none none none none none none none none none none none none none none none none none none none none none none none none none none none none none none none none none none none none none none none none none none none none none none none none none none none none none none none none none none none none none none none none none none none none none none none none none none none none none none none none none none none none none none none none none none none none none none none none none none none none none none none none none none none none none none none none none none none none none none none none none none none none none none none none [0:1] none none none none none none none none none none none none none none none none none none none none none none none none none none none none none none none none none none none none none none none none none none none none none none none none none none none none none none none none none none none none none none none none none none none none none none none none
tree_sizes=2676 2739 2745 2739 2752 2755 2762 2743 2743 2748 2733 2757 2752 2750 2765 2775 2757 2774 2792 2762 2743 2749 2771 2746 2775 2750 2752 2755 2791 2746 2773 2762 2737 2744 2737 2743 2773 2752 2772 2746 2748 2758 2782 2779 2765 2759 2726 2748 2780 2806 2749 2770 2757 2753 2775 2756 2740 2750 2767 2722 2762 2736 2733 2754 2720 2743 2755 2771 2767 2759 2751 2723 2726 2756 2749 2756 2733 2757 2729 2782 2764 2739 2777 2767 2743 2755 2793 2773 2754 2743 2750 2708 2732 2738 2754 2723 2750 2762 2722 2747 2732 2752 2748 2759 2758 2711 2728 2718 2719 2702 2730 2778 2719 2719 2728 2746 2770 2736 2732 2727 2739 2765 2760 2727 2756 2714 2706 2734 2747 2732 2766 2715 2753 2699 2727 2741 2728 2716 2734 2734 2721 2755 2751 2721 2735 2700 2753 2698 2741 2759 2748 2735 2724 2762 2732 2711 2723 2743 2723 2700 2751 2736 2698 2685 2759 2749 2692 2718 2734 2734 2736 2764 2686 2711 2742 2722 2745 2736 2733 2723 2751 2733 2742 2739 2702 2696 2715 2712 2734 2742 2724 2736 2719 2768 2715 2722 2700 2746 2709 2712 2678 2738 2697 2707 2731 2750 2716 2739 2721 2722 2720 2728 2757 2742 2732 2729 2735 2740 2730 2690 2729 2704 2697 2719 2740 2676 2717 2685 2683 2719 2721 2714 2724 2698 2717 2732 2706 2734 2767 2716 2730 2717 2725 2742 2710 2710 2699 2721 2709 2721 2746 2748 2786 2718 2748 2750 2691 2729 2735 2723 2767 2737 2766 2770 2756 2702 2730 2720 2712 2741 2689 2697 2710 2740 2724 2740 2741 2740 2762 2745 2702 2736 2738 2735 2722 2780 2758 2745 2747 2744 2703 2700 2725 2722 2706 2683 2701 2700 2686 2705 2727 2692 2713 2688 2706 2723 2688 2708 2727 2705 2736 2745 2703 2748 2748 2682 2673 2694 2706 2686 2722 2707 2685 2719 2726 2736 2745 2740 2732 2692 2714 2719 2686 2676 2678 2706 2710 2725 2736 2710 2745 2763 2710 2720 2724 2742 2681 2703 2728 2729 2712 2706 2700 2720 2701 2677 2711 2715 2694 2710 2703 2737 2702 2706 2753 2753 2729 2758 2719 2744 2733 2719 2707 2687 2709 2745 2747 2760 2742 2731 2728 2719 2732 2718 2732 2683 2701 2698 2704 2728 2710 2713 2724 2689 2706 2732 2719 2718 2726 2728 2741 2732 2735 2730 2749 2711 2706 2714 2707 2729 2682 2718 2732 2691 2683 2716 2720 2706 2718 2725 2757 2739 2765 2754 2759 2698 2707 2707 2682 2699 2692 2717 2713 2726 2707 2685 2673 2687 2692 2724 2678 2719 2678 2725 2680 2716 2736 2708 2698 2740 2761 2745 2740 2709 2734 2691 2714 2683 2728 2689 2736 2776 2732 2749 2751 2693 2717 2728 2710 2716 2708 2725 2739 2712 2738 2696 2702 2680 2727 2700 2716 2735 2746 2712 2709 2715 2714 2707 2688 2731 2736 2722 2712 2694 2731 2708 2683 2701 2694 2739 2702 2709 2701 2702 2772 2698 2698 2706 2709 2695 2747 2730 2729 2746 2727 2739 2754 2700 2706 2713 2694 2703 2727 2674 2707 2720 2744 2711 2686 2714 2744 2723 2761 2749 2709 2716 2720 2712 2758 2723 2732 2676 2764 2711 2734 2732 2690 2694 2711 2694 2696 2681 2692 2692 2714 2757 2716 2716 2690 2715 2725 2704 2707 2708 2696 2718 2717 2717 2693 2709 2723 2726 2713 2730 2716 2732 2737 2727 2748 2703 2730 2737 2733 2671 2712 2740 2704 2714 2705 2738 2722 2775 2745 2722 2703 2742 2698 2737 2727 2704 2706 2739 2697 2696 2724 2722 2712 2716 2724 2740 2683 2755 2743 2693 2719 2706 2711 2719 2726 2712 2705 2726 2707 2693 2710 2693 2742 2680 2745 2667 2729 2720 2745 2717 2704 2784 2723 2720 2701 2763 2744 2700 2682 2709 2714 2686 2720 2723 2753 2718 2731 2741 2733 2707 2729 2716 2694 2699 2686 2740 2702 2712 2698 2703 2693 2655 2710 2693 2691 2742 2717 2693 2683 2677 2686 2725 2718 2710 2710 2739 2695 2714 2713 2699 2712 2673 2698 2722 2716 2694 2740 2737 2733 2700 2735 2745 2731 2728 2721 2735 2692 2745 2716 2746 2687 2714 2668 2686 2669 2692 2740 2733 2727 2760 2741 2689 2743 2666 2690 2697 2728 2718 2727 2712 2727 2698 2756 2729 2738 2749 2733 2728 2717 2732 2714 2713 2708 2682 2707 2690 2707 2724 2716 2709 2721 2728 2708 2705 2740 2710 2709 2713 2709 2678 2712 2713 2754 2737 2731 2715 2761 2733 2733 2729 2722 2696 2692 2715 2711 2702 2693 2757 2712 2740 2767 2726 2743 2741 2734 2771 2788 2744 2757 2730 2724 2714 2705 2744 2722 2728 2711 2707 2714 2735 2720 2707 2739 2713 2720 2705 2718 2729 2727 2706 2717 2704 2714 2734 2712 2711 2686 2683 2705 2694 2701 2740 2707 2713 2717 2728 2725 2708 2706 2750 2715 2699 2720 2721 2701 2715 2723 2692 2692 2769 2763 2722 2726 2719 2711 2723 2753 2705 2715 2703 2698 2695 2709 2726 2739 2714 2724 2699 2702 2748 2734 2710 2701 2706 2676 2692 2745 2724 2721 2736 2748 2724 2711 2692 2733 2772 2708 2718 2692 2700 2712 2762 2710 2737 2699 2708 2762 2737 2760 2732 2713 2741 2727 2728 2742 2698 2698 2717 2718 2701 2675 2694 2721 2715 2711 2714 2715 2698 2737 2719 2745 2737 2732 2744 2741 2729 2742 2761 2744 2759 2714 2728 2733 2717 2720 2744 2753 2754 2724 2761 2773 2725 2698 2721 2730 2747 2706 2674 2676 2720 2739 2692 2706 2692 2698 2687 2702 2700 2722 2695 2716 2726 2725 2718 2705 2707 2712 2710 2693 2735 2723 2729 2765 2742 2714 2751 2730 2770 2728 2727 2692 2712 2718 2729 2739 2714 2739 2699 2705 2712 2738 2736 2736 2789 2723 2737 2710 2712 2699 2729 2756 2722 2748 2705 2728 2714 2718 2730 2735 2712 2724 2713 2742 2724 2720 2727

Tree=0
num_leaves=31
num_cat=0
split_feature=125 235 109 39 493 9 31 33 24 20 80 193 357 231 136 220 100 922 33 20 77 100 224 325 65 67 61 268 140 69
split_gain=1133.28 976.306 781.112 652.668 472.023 386.384 478.752 377.68 292.287 270.011 256.321 248.583 221.805 215.461 209.933 174.099 171.282 166.089 204.6 154.217 153.033 176.994 149.443 157.403 157.046 169.287 178.877 137.855 136.152 135.448
threshold=9.9999996826552254e-21 9.9999996826552254e-21 9.9999996826552254e-21 9.9999996826552254e-21 9.9999996826552254e-21 9.9999996826552254e-21 9.9999996826552254e-21 9.9999996826552254e-21 9.9999996826552254e-21 9.9999996826552254e-21 9.9999996826552254e-21 9.9999996826552254e-21 9.9999996826552254e-21 9.9999996826552254e-21 9.9999996826552254e-21 9.9999996826552254e-21 9.9999996826552254e-21 9.9999996826552254e-21 9.9999996826552254e-21 9.9999996826552254e-21 9.9999996826552254e-21 9.9999996826552254e-21 9.9999996826552254e-21 9.9999996826552254e-21 9.9999996826552254e-21 9.9999996826552254e-21 9.9999996826552254e-21 9.9999996826552254e-21 9.9999996826552254e-21 9.9999996826552254e-21
decision_type=2 2 2 2 2 2 2 2 2 2 2 2 2 2 2 2 2 2 2 2 2 2 2 2 2 2 2 2 2 2
left_child=1 2 3 4 5 6 11 13 10 12 14 -1 -5 19 15 22 -9 18 -11 20 21 29 23 24 25 27 -27 -8 -12 -7
right_child=-2 -3 -4 9 -6 7 8 16 -10 17 28 -13 -14 -15 -16 -17 -18 -19 -20 -21 -22 -23 -24 -25 -26 26 -28 -29 -30 -31
leaf_value=0.93895973606252681 0.92423169708084774 0.97824464121714272 0.96471015239890501 0.92191515630711673 0.91135765843192262 0.92482877531506502 0.9478356384922153 0.94793878805161425 0.90523326688743522 0.93077439611541013 0.96689748506909778 0.9902183647416094 0.9700686717152629 0.95767405888669588 0.93340575949994187 0.93278273125266975 0.91467546896510388 0.97232151446840165 0.94920859512812283 0.93780501361013402 0.94200761912389819 0.9053345938139804 0.97041964259368974 0.99082141082949038 0.96637507952000445 0.93316175462544126 0.97802609070009738 0.9250734427142705 0.91902464689354768 0.99207171421200213
leaf_count=38163 9868 1812 3466 6695 1246 5123 41535 5553 425 5726 2070 238 248 666 3042 2082 416 321 2042 3077 1076 1324 704 206 1025 3341 238 676 160 76
internal_value=0 0.0216314 0.0115447 -0.00118904 0.0249691 0.0318264 0.0571335 -0.105454 0.116524 -0.196891 0.122899 -0.0287088 -0.341554 -0.212608 0.108886 0.124462 0.0981538 -0.0727235 -0.101852 -0.247033 -0.323513 -0.381149 0.136811 0.129963 0.126125 0.11746 -0.0913535 0.135165 0.454996 -0.298022
internal_count=142640 132772 130960 127494 112462 111216 93905 17311 55504 15032 55079 38401 6943 11342 52849 49807 5969 8089 7768 10676 7599 6523 47725 47021 46815 45790 3579 42211 2230 5199
shrinkage=1


Tree=1
num_leaves=31
num_cat=0
split_feature=125 235 109 39 838 49 80 9 31 33 20 24 18 807 310 264 357 75 66 77 136 100 100 29 340 922 33 310 224 44
split_gain=1022.79 881.116 704.953 589.032 403.885 343.613 359.375 263.641 341.552 316.431 243.685 243.372 232.259 230.35 208.541 205.975 200.179 188.133 194.7 186.003 185.764 163.33 157.819 154.727 154.167 149.895 184.652 137.454 136.735 134.071
threshold=9.9999996826552254e-21 9.9999996826552254e-21 9.9999996826552254e-21 9.9999996826552254e-21 9.9999996826552254e-21 9.9999996826552254e-21 9.9999996826552254e-21 9.9999996826552254e-21 9.9999996826552254e-21 9.9999996826552254e-21 9.9999996826552254e-21 9.9999996826552254e-21 9.9999996826552254e-21 9.9999996826552254e-21 9.9999996826552254e-21 9.9999996826552254e-21 9.9999996826552254e-21 9.9999996826552254e-21 9.9999996826552254e-21 9.9999996826552254e-21 9.9999996826552254e-21 9.9999996826552254e-21 9.9999996826552254e-21 9.9999996826552254e-21 9.9999996826552254e-21 9.9999996826552254e-21 9.9999996826552254e-21 9.9999996826552254e-21 9.9999996826552254e-21 9.9999996826552254e-21
decision_type=2 2 2 2 2 2 2 2 2 2 2 2 2 2 2 2 2 2 2 2 2 2 2 2 2 2 2 2 2 2
left_child=1 2 3 4 5 6 7 8 14 12 16 13 19 15 24 20 -5 18 27 21 28 -9 -11 -16 -1 26 -12 -7 -10 -2
right_child=29 -3 -4 10 -6 17 -8 9 11 22 25 -13 -14 -15 23 -17 -18 -19 -20 -21 -22 -23 -24 -25 -26 -27 -28 -29 -30 -31
leaf_value=-0.0025011674908904042 -0.0074741737877414829 0.035655185709261315 0.022797421749332393 -0.017857824347863187 -0.032193187495582976 0.0050648716130399247 0.013951165695035289 -0.014387789569035705 0.0050009091227629001 0.0060805267354756198 -0.0094415462717722613 -0.033705618569079568 0.0016461235312531883 0.064765059412901949 0.054339757771408974 -0.020000335446106614 0.027888014422722103 0.032157906585829663 0.032614044866439297 0.0037798601119931664 -0.0082191051313417283 -0.033981268969826575 -0.028411419077718492 0.0070966984225378843 -0.020363843002641782 0.030028216789098134 0.0080709424753795164 0.074048457580478219 0.027586211888092228 -0.019807947770269566
leaf_count=32870 3321 1812 3466 6695 899 6684 4847 5655 42033 5250 5726 425 2819 157 262 870 248 946 753 1132 2676 1310 354 512 1254 321 2042 73 681 6547
internal_value=0 0.0205498 0.0109675 -0.00112961 0.0237206 0.0291002 0.0132069 9.46181e-05 0.0233812 -0.115126 -0.187047 0.079176 -0.214289 0.0860732 -0.0515096 0.0819692 -0.324476 0.222892 0.169953 -0.300357 0.0912074 -0.36146 0.078034 0.461771 -0.0631518 -0.0690873 -0.0967596 0.116203 0.10722 -0.313142
internal_count=142640 132772 130960 127494 112462 111563 103107 98260 81740 16520 15032 46842 10916 46417 34898 46260 6943 8456 7510 8097 45390 6965 5604 774 34124 8089 7768 6757 42714 9868
shrinkage=0.05


Tree=2
num_leaves=31
num_cat=0
split_feature=125 233 39 74 493 310 72 69 80 30 35 9 158 31 33 264 922 166 193 136 18 357 224 325 164 340 77 19 22 33
split_gain=923.067 801.786 592.965 420.468 395.683 362.199 304.066 308.934 308.371 245.632 218.141 201.441 300.287 277.171 266.595 226.357 184.487 165.802 162.383 162.155 153.83 143.886 142.226 140.99 141.419 140.854 134.321 133.772 133.191 129.68
threshold=9.9999996826552254e-21 9.9999996826552254e-21 9.9999996826552254e-21 9.9999996826552254e-21 9.9999996826552254e-21 9.9999996826552254e-21 9.9999996826552254e-21 9.9999996826552254e-21 9.9999996826552254e-21 9.9999996826552254e-21 9.9999996826552254e-21 9.9999996826552254e-21 9.9999996826552254e-21 9.9999996826552254e-21 9.9999996826552254e-21 9.9999996826552254e-21 9.9999996826552254e-21 9.9999996826552254e-21 9.9999996826552254e-21 9.9999996826552254e-21 9.9999996826552254e-21 9.9999996826552254e-21 9.9999996826552254e-21 9.9999996826552254e-21 9.9999996826552254e-21 9.9999996826552254e-21 9.9999996826552254e-21 9.9999996826552254e-21 9.9999996826552254e-21 9.9999996826552254e-21
decision_type=2 2 2 2 2 2 2 2 2 2 2 2 2 2 2 2 2 2 2 2 2 2 2 2 2 2 2 2 2 2
left_child=1 2 3 4 5 6 7 8 11 -7 -8 13 14 18 20 19 17 21 25 22 26 -4 23 24 -15 -1 -13 -19 -5 -2
right_child=29 -3 16 28 -6 9 10 -9 -10 -11 -12 12 -14 15 -16 -17 -18 27 -20 -21 -22 -23 -24 -25 -26 -27 -28 -29 -30 -31
leaf_value=-0.0022781832167263327 -0.015984738672100551 0.033870450628206823 -0.01194614018472339 0.041873505273020813 -0.026739324813254212 0.043724154813541159 0.0035416945181232333 0.025672326311288532 0.012823738401632902 0.0082221325829489322 0.035544805041350928 -0.015084394563937549 -0.036791121892922017 0.0035947201670998748 0.0053653522771919624 -0.020915259696035225 0.028560690885127145 0.013062981325496624 0.024247319997022197 -0.0073911866203806176 0.0015044938846019258 0.0264936149254584 0.026813358126173626 0.045438235852578029 0.024194706059763052 -0.019345649958992156 0.0040823434748018137 -0.045202860236167909 0.015305851092113899 0.014710649276407911
leaf_count=33572 9511 1827 13251 630 1246 817 1041 1238 4884 1207 1090 6239 717 44570 5324 946 323 1121 560 3050 2801 248 704 206 849 1254 1071 108 1878 357
internal_value=0 0.0195224 0.0103432 0.0345938 0.0256357 0.0318626 0.0241576 0.0167756 0.0110155 0.451055 0.398224 -0.000753475 -0.103194 0.0185511 -0.0738064 0.0662358 -0.176388 -0.192784 -0.0492647 0.0755186 -0.169173 -0.224799 0.090222 0.0833395 0.0795958 -0.0578548 -0.245525 0.158856 0.439591 -0.297485
internal_count=142640 132772 130945 115894 113386 112140 110116 107985 106747 2024 2131 101863 16152 85711 15435 50325 15051 14728 35386 49379 10111 13499 46329 45625 45419 34826 7310 1229 2508 9868
shrinkage=0.05


Tree=3
num_leaves=31
num_cat=0
split_feature=125 233 39 74 838 310 49 80 9 20 807 75 69 9 33 31 24 231 357 264 100 20 340 77 33 922 224 416 178 100
split_gain=833.068 723.612 535.151 379.472 337.153 329.584 276.839 289.468 221.284 214.626 186.944 179.147 199.243 168.561 264.002 249.938 212.979 188.672 164.565 161.143 139.826 132.057 129.857 128.818 123.728 152.47 123.081 122.283 121.822 120.86
threshold=9.9999996826552254e-21 9.9999996826552254e-21 9.9999996826552254e-21 9.9999996826552254e-21 9.9999996826552254e-21 9.9999996826552254e-21 9.9999996826552254e-21 9.9999996826552254e-21 9.9999996826552254e-21 9.9999996826552254e-21 9.9999996826552254e-21 9.9999996826552254e-21 9.9999996826552254e-21 9.9999996826552254e-21 9.9999996826552254e-21 9.9999996826552254e-21 9.9999996826552254e-21 9.9999996826552254e-21 9.9999996826552254e-21 9.9999996826552254e-21 9.9999996826552254e-21 9.9999996826552254e-21 9.9999996826552254e-21 9.9999996826552254e-21 9.9999996826552254e-21 9.9999996826552254e-21 9.9999996826552254e-21 9.9999996826552254e-21 9.9999996826552254e-21 9.9999996826552254e-21
decision_type=2 2 2 2 2 2 2 2 2 2 2 2 2 2 2 2 2 2 2 2 2 2 2 2 2 2 2 2 2 2
left_child=1 2 3 4 5 6 7 10 -7 18 13 12 -8 15 17 22 19 21 -4 26 -16 23 27 29 25 -11 -17 -1 -5 -15
right_child=-2 -3 9 28 -6 8 11 -9 -10 24 -12 -13 -14 14 20 16 -18 -19 -20 -21 -22 -23 -24 -25 -26 -27 -28 -29 -30 -31
leaf_value=-0.0022991341953863625 -0.014130543259044524 0.032176927788583318 -0.016307942535770132 0.017788962445275669 -0.029280578236595974 0.028329128353681038 0.0042361099176678905 0.01234869572518197 -0.018397291135164417 -0.0083110787660278761 0.050415554112475884 0.030953947201066284 0.02910533098104158 -0.013975004137435913 0.006073137665644119 0.0034468707656939244 -0.032200073848752418 0.016286104747040918 0.025168933661001164 -0.017954557110694633 -0.026419558901619955 -0.0022980624621391529 -0.018378368040871326 0.00135230539044222 0.0077944034125456809 0.027098770177055649 0.02486623286026176 0.027537664445788097 0.060159146771486344 -0.031064335520994964
leaf_count=33110 9868 1827 6699 2325 899 1725 6514 4814 297 5741 182 898 919 4759 5118 44264 425 664 248 870 354 2930 1254 1040 2042 321 681 347 183 1322
internal_value=0 0.0185462 0.00982609 0.0328642 0.0243539 0.0292287 0.0219054 0.00760774 0.429315 -0.167569 -0.00423267 0.197188 0.146218 -0.00612979 -0.0992862 0.0124978 0.0606404 -0.19055 -0.296545 0.067177 0.0794218 -0.224656 -0.0516351 -0.298182 -0.0570065 -0.128721 0.0754283 -0.0397936 0.417611 -0.353804
internal_count=142640 132772 130945 115894 113386 112487 110465 102134 2022 15051 97320 8331 7433 97138 16187 80951 46240 10715 6947 45815 5472 10051 34711 7121 8104 6062 44945 33457 2508 6081
shrinkage=0.05


Tree=4
num_leaves=31
num_cat=0
split_feature=125 235 109 140 49 493 9 108 100 68 807 39 181 65 378 34 764 790 1275 922 44 340 324 264 653 24 357 78 56 55
split_gain=751.844 654.505 526.371 445.617 311.451 293.124 293.09 291.764 281.098 217.606 211.716 161.255 151.145 168.928 143.263 134.909 128.632 126.154 123.706 118.392 118.055 117.613 121.544 120.896 120.761 117.998 115.104 112.031 151.216 111.456
threshold=9.9999996826552254e-21 9.9999996826552254e-21 9.9999996826552254e-21 9.9999996826552254e-21 9.9999996826552254e-21 9.9999996826552254e-21 9.9999996826552254e-21 9.9999996826552254e-21 9.9999996826552254e-21 9.9999996826552254e-21 9.9999996826552254e-21 9.9999996826552254e-21 9.9999996826552254e-21 9.9999996826552254e-21 9.9999996826552254e-21 9.9999996826552254e-21 9.9999996826552254e-21 9.9999996826552254e-21 9.9999996826552254e-21 9.9999996826552254e-21 9.9999996826552254e-21 9.9999996826552254e-21 9.9999996826552254e-21 9.9999996826552254e-21 9.9999996826552254e-21 9.9999996826552254e-21 9.9999996826552254e-21 9.9999996826552254e-21 9.9999996826552254e-21 9.9999996826552254e-21
decision_type=2 2 2 2 2 2 2 2 2 2 2 2 2 2 2 2 2 2 2 2 2 2 2 2 2 2 2 2 2 2
left_child=1 2 3 4 5 6 7 9 15 10 11 14 13 -6 16 19 18 -11 21 27 -2 22 23 24 25 -1 -13 -8 -29 -9
right_child=20 -3 -4 -5 12 -7 8 29 -10 17 -12 26 -14 -15 -16 -17 -18 -19 -20 -21 -22 -23 -24 -25 -26 -27 -28 28 -30 -31
leaf_value=0.0020709235258910439 -0.0057453594381888188 0.030725380741296854 0.019693491276026723 -0.017592356628331123 0.0048203829070270253 -0.024355082594195741 -0.0086127426373544466 0.021023816654652406 -0.019909924985426392 0.009577956896802152 0.057836133505235303 -0.011147154509368973 0.031319857751420599 0.027045683223747986 -0.018838086685783326 0.0015629118806585387 0.050356663143589303 0.042117258782283618 -0.025547158615983528 0.028998900285183357 -0.01731905324748877 -0.013181355124564266 -0.013708697526201838 -0.01705682819002954 -0.018680880731359744 -0.02208922711059896 0.023910487375894351 0.020396519958687256 -0.018964083703477408 0.0033287723296209822
leaf_count=70998 3321 1812 3466 3522 6748 1246 10909 2509 2741 3568 159 4188 738 979 935 9475 131 325 444 232 6547 1450 1343 870 720 509 248 771 357 1379
internal_value=0 0.0176189 0.00936021 -0.00109292 0.00887189 -0.00469694 0.000563618 0.0270134 -0.0964163 0.0148841 0.00391639 0.00167659 0.194022 0.152726 0.0123036 -0.0583743 0.017061 0.245889 0.0153619 -0.127595 -0.26848 0.0184411 0.0239354 0.0294125 0.0338759 0.0379789 -0.183744 -0.141233 0.158786 0.294954
internal_count=142640 132772 130960 127494 123972 115507 114261 89776 24485 85888 81995 81836 8465 7727 77400 21744 76465 3893 76334 12269 9868 75890 74440 73097 72227 71507 4436 12037 1128 3888
shrinkage=0.05


Tree=5
num_leaves=31
num_cat=0
split_feature=233 109 264 140 33 9 790 146 31 200 72 181 24 178 56 78 315 225 144 123 61 81 922 168 220 124 15 247 77 39
split_gain=718.496 507.77 451.415 351.715 287.501 372.709 305.361 293.056 188.113 204.952 172.933 173.44 169.347 162.888 139.332 181.848 135.218 131.673 129.348 169.266 117.532 116.985 114.298 112.123 109.724 122.56 142.74 133.246 108.065 117.581
threshold=9.9999996826552254e-21 9.9999996826552254e-21 9.9999996826552254e-21 9.9999996826552254e-21 9.9999996826552254e-21 9.9999996826552254e-21 9.9999996826552254e-21 9.9999996826552254e-21 9.9999996826552254e-21 9.9999996826552254e-21 9.9999996826552254e-21 9.9999996826552254e-21 9.9999996826552254e-21 9.9999996826552254e-21 9.9999996826552254e-21 9.9999996826552254e-21 9.9999996826552254e-21 9.9999996826552254e-21 9.9999996826552254e-21 9.9999996826552254e-21 9.9999996826552254e-21 9.9999996826552254e-21 9.9999996826552254e-21 9.9999996826552254e-21 9.9999996826552254e-21 9.9999996826552254e-21 9.9999996826552254e-21 9.9999996826552254e-21 9.9999996826552254e-21 9.9999996826552254e-21
decision_type=2 2 2 2 2 2 2 2 2 2 2 2 2 2 2 2 2 2 2 2 2 2 2 2 2 2 2 2 2 2
left_child=1 2 3 4 5 6 7 8 18 12 13 -12 17 16 15 21 -6 24 20 -20 23 22 -7 -1 25 26 -10 -28 -16 -30
right_child=-2 -3 -4 -5 10 14 -8 -9 9 -11 11 -13 -14 -15 28 -17 -18 -19 19 -21 -22 -23 -24 -25 -26 -27 27 -29 29 -31
leaf_value=-0.0022755067664488845 0.030727476660913307 0.018388265566040535 -0.018774492258732199 -0.01612441812531994 0.0029425288174342729 -0.0089093100064244011 0.037873510326606706 -0.015591729116101464 0.006527385469627495 -0.0132546386667418 0.011941623389059368 0.064245646049468114 -0.028322512252354784 0.022295329574418304 -0.023923962905822937 0.017085988277382454 -0.027779265297563922 0.035442389438072076 -0.022529119531604368 0.019453099528360038 0.038902029889177979 0.022473097799028091 0.0266725868569768 0.025673428498889695 -0.0080980766462196933 -0.0066850221355867993 -0.0029580122948504924 0.038091461073639171 0.010701405381268915 -0.021137865056780263
leaf_count=31334 1870 3481 3462 3502 33790 12058 527 3017 26724 1939 542 224 416 1085 2193 802 362 325 1469 287 177 318 230 363 1941 2450 6388 204 586 574
internal_value=0 -0.00941085 -0.0189742 -0.00975147 -0.00134783 -0.0303659 -0.00114409 -0.00633387 0.00611861 0.0521217 0.0746748 0.544736 0.0681194 0.0644563 -0.165589 -0.119995 0.0523378 0.0750604 -0.0491275 -0.313351 -0.0345709 -0.149369 -0.164866 -0.0391086 0.0695977 0.0821643 0.0980386 -0.0337534 -0.347911 -0.101071
internal_count=142640 140770 137289 133827 130325 94322 77561 77034 74017 40387 36003 766 38448 35237 16761 13408 34152 38032 33630 1756 31874 12606 12288 31697 37707 35766 33316 6592 3353 1160
shrinkage=0.05


Tree=6
num_leaves=31
num_cat=0
split_feature=233 125 109 140 9 493 158 108 72 34 498 69 32 910 37 36 18 78 264 649 1275 807 442 136 664 24 310 78 340 29
split_gain=648.443 582.796 414.939 336.743 270.01 286.946 256.768 234.361 231.359 175.405 165.987 155.915 157.82 156.057 148.272 133.591 132.981 160.402 122.534 117.459 111.484 105.694 105.347 101.526 109.966 102.422 236.532 106.782 105.075 119.308
threshold=9.9999996826552254e-21 9.9999996826552254e-21 9.9999996826552254e-21 9.9999996826552254e-21 9.9999996826552254e-21 9.9999996826552254e-21 9.9999996826552254e-21 9.9999996826552254e-21 9.9999996826552254e-21 9.9999996826552254e-21 9.9999996826552254e-21 9.9999996826552254e-21 9.9999996826552254e-21 9.9999996826552254e-21 9.9999996826552254e-21 9.9999996826552254e-21 9.9999996826552254e-21 9.9999996826552254e-21 9.9999996826552254e-21 9.9999996826552254e-21 9.9999996826552254e-21 9.9999996826552254e-21 9.9999996826552254e-21 9.9999996826552254e-21 9.9999996826552254e-21 9.9999996826552254e-21 9.9999996826552254e-21 9.9999996826552254e-21 9.9999996826552254e-21 9.9999996826552254e-21
decision_type=2 2 2 2 2 2 2 2 2 2 2 2 2 2 2 2 2 2 2 2 2 2 2 2 2 2 2 2 2 2
left_child=1 2 3 4 5 7 9 8 10 16 11 12 13 18 -10 -11 -6 -18 19 20 21 22 23 24 25 26 28 -28 29 -1
right_child=-2 -3 -4 -5 6 -7 -8 -9 14 15 -12 -13 -14 -15 -16 -17 17 -19 -20 -21 -22 -23 -24 -25 -26 -27 27 -29 -30 -31
leaf_value=0.0032041159433974439 0.029191102459752823 -0.012152317831534493 0.017468852040729201 -0.015318197036086693 -0.010580202703491394 -0.022326066437808257 -0.028580105126431145 0.013747969641026618 0.0088939003865597405 0.00068360226687922267 -0.027518591962675584 0.019444137324851368 0.0058158788303411145 0.087499237002110958 0.040211104327025488 0.02973139746290503 -0.0033571965968718005 0.026316294667961461 -0.019229203181356073 -0.016789374847936422 -0.024822902889098233 0.032727464283725215 0.014890892649593718 -0.0056356378301965441 0.059052549679706128 -0.01639335340361097 0.041475021959239695 -0.026729034632444384 -0.01274980114860863 -0.001152071564906454
leaf_count=31190 1870 9887 3481 3502 8728 1240 1039 3989 1078 9512 506 1156 14142 51 582 413 4725 504 819 1002 434 255 1247 6688 81 859 490 65 1419 31686
internal_value=0 -0.00894029 0.00874425 -0.000562843 0.00808054 0.0315048 -0.0849537 0.0375694 0.0274686 -0.0637818 0.0207989 0.0239547 0.0192895 0.00130235 0.397476 0.0378468 -0.136051 -0.00994202 0.000132511 0.00431044 0.00888993 0.0118545 0.00963158 0.00467327 0.0166064 0.0151709 0.0197148 0.669743 0.0141037 0.0201768
internal_count=142640 140770 130883 127402 123900 98979 24921 97739 93750 23882 92090 91584 90428 76286 1660 9925 13957 5229 76235 75416 74414 73980 73725 72478 65790 65709 64850 555 64295 62876
shrinkage=0.05


Tree=7
num_leaves=31
num_cat=0
split_feature=235 125 109 39 493 9 31 33 264 174 790 136 220 59 108 20 357 72 36 225 81 664 76 100 33 922 40 164 310 620
split_gain=586.564 527.931 375.098 326.373 241.989 221.125 283.436 212.567 176.714 166.258 165.946 160.602 159.232 137.327 132.431 131.221 134.917 130.819 138.544 132.85 111.804 110.004 108.647 107.968 107.788 108.219 105.594 105.567 104.546 103.311
threshold=9.9999996826552254e-21 9.9999996826552254e-21 9.9999996826552254e-21 9.9999996826552254e-21 9.9999996826552254e-21 9.9999996826552254e-21 9.9999996826552254e-21 9.9999996826552254e-21 9.9999996826552254e-21 9.9999996826552254e-21 9.9999996826552254e-21 9.9999996826552254e-21 9.9999996826552254e-21 9.9999996826552254e-21 9.9999996826552254e-21 9.9999996826552254e-21 9.9999996826552254e-21 9.9999996826552254e-21 9.9999996826552254e-21 9.9999996826552254e-21 9.9999996826552254e-21 9.9999996826552254e-21 9.9999996826552254e-21 9.9999996826552254e-21 9.9999996826552254e-21 9.9999996826552254e-21 9.9999996826552254e-21 9.9999996826552254e-21 9.9999996826552254e-21 9.9999996826552254e-21
decision_type=2 2 2 2 2 2 2 2 2 2 2 2 2 2 2 2 2 2 2 2 2 2 2 2 2 2 2 2 2 2
left_child=1 2 3 4 5 6 10 9 11 20 13 12 14 21 17 16 -5 19 -19 27 -7 22 29 -9 25 -17 -16 -8 -12 -1
right_child=-2 -3 -4 15 -6 7 8 23 -10 -11 28 -13 -14 -15 26 24 -18 18 -20 -21 -22 -23 -24 -25 -26 -27 -28 -29 -30 -31
leaf_value=-0.0022801589125328136 0.027740867217608368 -0.011570938211331821 0.016592500568544433 -0.013324984550075115 -0.020996705736774274 -0.010183590499507417 0.004243504124852005 0.0055436480021257995 -0.017030913289931407 0.023085233101398026 0.0024171617706135618 -0.0062999975158070836 -0.0079453788095940666 0.031064266575267542 0.03458477473744332 -0.0075514837142436498 0.024451535117565371 0.0075023358755362578 0.038091668524646766 0.025127974895169922 0.017597843260255954 0.048327644230528745 0.050602442938454298 -0.020824588943967978 0.0073092874978501234 0.022597834756182638 0.010724666578583309 0.021266927474061961 0.052270319941652633 0.039024950071899711
leaf_count=37292 1873 9879 3488 6697 1248 10569 43887 5448 947 413 191 3099 2136 320 669 5712 245 923 618 802 375 109 98 418 2043 314 1511 930 234 152
internal_value=0 -0.00850776 0.00831684 -0.000540962 0.0179566 0.0228737 0.0419749 -0.0812865 0.0876589 -0.161129 -0.0240857 0.0950904 0.108401 -0.0310408 0.119973 -0.139034 -0.239835 0.108834 0.395397 0.0991541 -0.184633 -0.036585 -0.0394976 0.073294 -0.0523125 -0.11961 0.360937 0.0919352 0.597314 -0.0422497
internal_count=142640 140767 130888 127400 112389 111141 93918 17223 55522 11357 38396 54575 51476 37971 49340 15011 6942 47160 1541 45619 10944 37651 37542 5866 8069 6026 2180 44817 425 37444
shrinkage=0.05


Tree=8
num_leaves=31
num_cat=0
split_feature=233 125 39 74 493 310 72 69 35 9 9 158 31 33 22 231 264 24 136 140 108 220 20 14 356 44 33 416 664 224
split_gain=530.823 474.637 327.918 253.919 220.345 207.092 181.446 194.098 163.931 155.543 151.356 198.982 197.067 175.262 147.625 145.908 144.201 142.641 133.949 132.069 151.421 123.303 117.878 117.771 116.5 108.296 100.066 98.9754 99.6591 98.7784
threshold=9.9999996826552254e-21 9.9999996826552254e-21 9.9999996826552254e-21 9.9999996826552254e-21 9.9999996826552254e-21 9.9999996826552254e-21 9.9999996826552254e-21 9.9999996826552254e-21 9.9999996826552254e-21 9.9999996826552254e-21 9.9999996826552254e-21 9.9999996826552254e-21 9.9999996826552254e-21 9.9999996826552254e-21 9.9999996826552254e-21 9.9999996826552254e-21 9.9999996826552254e-21 9.9999996826552254e-21 9.9999996826552254e-21 9.9999996826552254e-21 9.9999996826552254e-21 9.9999996826552254e-21 9.9999996826552254e-21 9.9999996826552254e-21 9.9999996826552254e-21 9.9999996826552254e-21 9.9999996826552254e-21 9.9999996826552254e-21 9.9999996826552254e-21 9.9999996826552254e-21
decision_type=2 2 2 2 2 2 2 2 2 2 2 2 2 2 2 2 2 2 2 2 2 2 2 2 2 2 2 2 2 2
left_child=1 2 3 4 5 6 7 10 -8 23 12 13 27 15 -5 25 17 18 19 20 21 29 24 -7 -4 -12 -3 28 -1 -14
right_child=-2 26 22 14 -6 9 8 -9 -10 -11 11 -13 16 -15 -16 -17 -18 -19 -20 -21 -22 -23 -24 -25 -26 -27 -28 -29 -30 -31
leaf_value=-0.0019681279012666959 0.026411418227178796 -0.01193137374321427 -0.012582101146080233 0.037966530220656998 -0.019946871065323463 0.028634042971298908 0.0011508470749712876 0.020230113878896661 0.028939317873015343 -0.016930017609044844 -0.010025218120242572 -0.029385882992221897 0.0043522409977357519 0.0045269724772868314 0.01000569803766739 0.015982748332050968 -0.016179366998079339 -0.025544694067825852 -0.0062830327322050076 -0.019805257876455463 0.018127872684971312 -0.007762393595639557 -0.0024481711501195473 -0.0053913797071982704 0.02211417868302994 0.0072856806374152223 0.015289739990872998 0.024734281786088701 0.04591126432727783 0.022989414409988071
leaf_count=37314 1870 9537 6699 630 1248 1437 1038 1245 1086 290 8638 740 42674 5312 1883 666 947 419 3125 557 2006 2093 8081 309 251 1009 350 354 109 723
internal_value=0 -0.00808627 0.00787312 0.0259026 0.0189315 0.023584 0.0177377 0.0120416 0.307182 0.339602 0.00746055 -0.081027 0.0234934 -0.0570301 0.340308 -0.13304 0.0630997 0.0701969 0.0749544 0.0880008 0.0936781 0.0818211 -0.13109 0.452247 -0.226581 -0.164293 -0.219355 -0.0315951 -0.0365734 0.0932548
internal_count=142640 140770 130883 115852 113339 112091 110055 107931 2124 2036 106686 16365 90321 15625 2513 10313 52544 51597 51178 48053 47496 45490 15031 1746 6950 9647 9887 37777 37423 43397
shrinkage=0.05


Tree=9
num_leaves=31
num_cat=0
split_feature=235 264 109 49 140 33 9 68 146 493 807 18 72 78 178 333 108 310 101 474 764 498 378 181 65 108 73 108 310 632
split_gain=480.25 340.444 322.127 254.987 228.375 195.465 233.032 265.267 213.084 181.584 173.151 165.396 159.548 149.979 142.197 116.97 116.287 114.025 133.725 114.015 113.284 110.098 108.577 106.054 121.557 103.201 97.0779 93.0441 91.2193 90.8939
threshold=9.9999996826552254e-21 9.9999996826552254e-21 9.9999996826552254e-21 9.9999996826552254e-21 9.9999996826552254e-21 9.9999996826552254e-21 9.9999996826552254e-21 9.9999996826552254e-21 9.9999996826552254e-21 9.9999996826552254e-21 9.9999996826552254e-21 9.9999996826552254e-21 9.9999996826552254e-21 9.9999996826552254e-21 9.9999996826552254e-21 9.9999996826552254e-21 9.9999996826552254e-21 9.9999996826552254e-21 9.9999996826552254e-21 9.9999996826552254e-21 9.9999996826552254e-21 9.9999996826552254e-21 9.9999996826552254e-21 9.9999996826552254e-21 9.9999996826552254e-21 9.9999996826552254e-21 9.9999996826552254e-21 9.9999996826552254e-21 9.9999996826552254e-21 9.9999996826552254e-21
decision_type=2 2 2 2 2 2 2 2 2 2 2 2 2 2 2 2 2 2 2 2 2 2 2 2 2 2 2 2 2 2
left_child=1 2 3 4 5 6 7 8 9 10 15 -8 14 27 19 16 20 18 -9 25 21 22 29 24 28 -7 -25 -13 -5 -1
right_child=-2 -3 -4 23 -6 12 11 17 -10 -11 -12 13 -14 -15 -16 -17 -18 -19 -20 -21 -22 -23 -24 26 -26 -27 -28 -29 -30 -31
leaf_value=-0.0007515374678253294 0.025101427424939173 -0.015870161080478395 0.015006247226927439 0.0033785832759940133 -0.013536488708870529 0.0007073814055013934 -0.01094359172892281 0.015313152374313497 -0.01441634892036163 -0.019737901909998162 0.052147744864130478 -0.0012620983371829098 0.04343373495180497 0.022768880296664039 0.020158180777351122 0.037008834783829603 0.012242577696276858 0.045649878150809252 -0.013632683836168759 0.035738780292093146 0.04608578661354841 -0.027115062377334312 -0.019004608824752668 0.0051347423096282973 0.023174311472666211 0.011554221321859121 0.042258532240662103 -0.025336108759505933 0.061168020180143091 0.022291801653731087
leaf_count=60300 1873 3462 3488 6596 3502 29974 10551 2494 2942 1224 157 4921 238 619 1085 208 1729 253 475 245 128 401 811 307 941 2366 413 437 69 431
internal_value=0 -0.00769563 0.000113317 -0.00770662 -0.0189505 -0.0117225 -0.0365587 -0.0118378 -0.0250593 -0.0132143 -0.00593607 -0.14358 0.052793 -0.01067 0.0470258 -0.00850881 -0.0109497 0.268559 0.213644 0.0351673 -0.0180751 -0.0200171 -0.0166139 0.161763 0.127039 0.0300188 0.528587 -0.0645116 0.0795371 -0.01176
internal_count=142640 140767 137305 133817 125491 121989 88081 71553 68331 65389 64165 16528 33908 5977 33670 64008 63800 3222 2969 32585 62071 61943 61542 8326 7606 32340 720 5358 6665 60731
shrinkage=0.05


Tree=10
num_leaves=31
num_cat=0
split_feature=238 125 39 838 790 74 9 56 77 72 77 922 416 807 325 59 220 414 688 9 653 164 22 620 766 264 136 20 357 231
split_gain=430.606 389.345 277.749 210.936 184.126 175.592 152.345 153.998 136.485 133.748 124.538 121.042 116.798 109.694 116.498 110.253 113.637 108.914 104.903 103.439 103.314 98.0778 94.1189 91.5215 90.3008 87.1242 86.066 85.8532 113.107 85.0143
threshold=9.9999996826552254e-21 9.9999996826552254e-21 9.9999996826552254e-21 9.9999996826552254e-21 9.9999996826552254e-21 9.9999996826552254e-21 9.9999996826552254e-21 9.9999996826552254e-21 9.9999996826552254e-21 9.9999996826552254e-21 9.9999996826552254e-21 9.9999996826552254e-21 9.9999996826552254e-21 9.9999996826552254e-21 9.9999996826552254e-21 9.9999996826552254e-21 9.9999996826552254e-21 9.9999996826552254e-21 9.9999996826552254e-21 9.9999996826552254e-21 9.9999996826552254e-21 9.9999996826552254e-21 9.9999996826552254e-21 9.9999996826552254e-21 9.9999996826552254e-21 9.9999996826552254e-21 9.9999996826552254e-21 9.9999996826552254e-21 9.9999996826552254e-21 9.9999996826552254e-21
decision_type=2 2 2 2 2 2 2 2 2 2 2 2 2 2 2 2 2 2 2 2 2 2 2 2 2 2 2 2 2 2
left_child=1 2 3 4 5 6 9 29 -9 12 -11 27 13 15 -15 17 -17 18 20 -3 21 23 -7 24 25 26 -1 28 -4 -8
right_child=-2 19 11 -5 -6 22 7 8 -10 10 -12 -13 -14 14 -16 16 -18 -19 -20 -21 -22 -23 -24 -25 -26 -27 -28 -29 -30 -31
leaf_value=0.0019445210784599062 0.024880405607908603 -0.010397631359931419 -0.011834891934731671 -0.022704173316008516 0.024093363354244016 0.031888861376368864 -0.0021156145746403375 -0.020510626576836454 0.0031588447960517445 0.010634351329887675 0.051812049888216999 0.024268774479000759 0.02667255308782104 -0.0080084223811532941 0.060370155459386302 0.014259272110642526 -0.033414119795303454 -0.017612250574902951 -0.014733144973028738 0.038362981279126629 -0.017819278615894413 0.017748596670207131 0.0090233451367456689 0.041497036603174477 0.05004385099207101 -0.013764744674824062 -0.003551463275559242 -0.0029573651920788502 0.022685043113656361 0.014039594267716261
leaf_count=77236 1728 9681 6706 907 895 594 13408 2105 857 1512 209 325 461 102 160 2357 132 774 1018 110 693 926 1857 142 95 953 7847 7737 246 867
internal_value=0 -0.00463571 0.00972814 0.0262786 0.0300606 0.026523 0.0207211 -0.0657441 -0.273246 0.0364731 0.3127 -0.11826 0.0313556 0.0288516 0.67499 0.0270149 0.23462 0.0212533 0.0245047 -0.196996 0.0282014 0.0312579 0.291296 0.0277833 0.0264609 0.0253849 0.0287528 -0.131616 -0.212268 -0.0226884
internal_count=142640 140912 131121 116107 115200 114305 111854 17237 2962 94617 1721 15014 92896 92435 262 92173 2489 89684 88910 9791 87892 87199 2451 86273 86131 86036 85083 14689 6952 14275
shrinkage=0.05


Tree=11
num_leaves=31
num_cat=0
split_feature=233 125 140 178 9 31 100 493 33 790 76 220 225 442 67 61 97 807 340 73 34 649 1275 19 30 324 35 40 169 77
split_gain=383.515 350.318 228.427 219.329 185.594 241.716 212.208 175.32 143.902 135.423 134.058 121.545 119.126 114.891 121.247 171.148 106.607 99.9562 98.7845 97.6077 233.02 96.9401 95.956 99.3076 110.354 143.216 103.118 93.9411 93.6443 93.476
threshold=9.9999996826552254e-21 9.9999996826552254e-21 9.9999996826552254e-21 9.9999996826552254e-21 9.9999996826552254e-21 9.9999996826552254e-21 9.9999996826552254e-21 9.9999996826552254e-21 9.9999996826552254e-21 9.9999996826552254e-21 9.9999996826552254e-21 9.9999996826552254e-21 9.9999996826552254e-21 9.9999996826552254e-21 9.9999996826552254e-21 9.9999996826552254e-21 9.9999996826552254e-21 9.9999996826552254e-21 9.9999996826552254e-21 9.9999996826552254e-21 9.9999996826552254e-21 9.9999996826552254e-21 9.9999996826552254e-21 9.9999996826552254e-21 9.9999996826552254e-21 9.9999996826552254e-21 9.9999996826552254e-21 9.9999996826552254e-21 9.9999996826552254e-21 9.9999996826552254e-21
decision_type=2 2 2 2 2 2 2 2 2 2 2 2 2 2 2 2 2 2 2 2 2 2 2 2 2 2 2 2 2 2
left_child=1 2 3 4 5 7 8 9 -6 10 16 12 13 14 19 -16 18 -14 21 -7 -21 22 23 24 25 26 -1 28 -26 -3
right_child=-2 29 -4 -5 6 11 -8 -9 -10 -11 -12 -13 17 -15 15 -17 -18 -19 -20 20 -22 -23 -24 -25 27 -27 -28 -29 -30 -31
leaf_value=0.007546676102453128 0.022655204585022258 -0.0099840016186035913 -0.012124656687382595 0.020257444348083499 -0.0045633199275011554 0.0037942877441275442 -0.016407412011528479 -0.020062974925116318 0.003949397393934565 0.020686330783736107 0.019792633996772013 -0.0075292297779860629 0.017275482223572461 0.019675386183640689 -0.0088848635943139225 0.021680394652348972 0.045427286613363128 0.074924489536455696 -0.015293218157310537 -0.002253596306640591 0.033056060472908835 -0.016557250187215138 -0.024442614227029424 0.0090666590978033187 -0.0064130071809080317 -0.012085173470078925 -0.012819895005294506 0.00013842326836886588 0.020279390006865034 0.028431623725232131
leaf_count=7581 1855 9629 3513 1432 14582 46405 2744 1201 7527 728 757 2310 717 1129 3454 528 121 84 1272 932 937 995 423 2537 13157 1282 677 13633 337 161
internal_value=0 -0.00457578 0.00906117 0.0159932 0.0115722 0.030588 -0.065857 -0.0243558 -0.0333034 -0.0139498 -0.021229 0.0740609 0.0836377 0.0778944 0.0710755 -0.0966402 -0.0287437 0.466421 -0.0314509 0.0849099 0.308969 -0.0228581 -0.0151173 -0.0100058 -0.0232446 0.0692643 0.11754 -0.0557781 -0.114928 -0.187045
internal_count=142640 140785 130995 127482 126050 101197 24853 44701 22109 43500 42772 56496 54186 53385 52256 3982 42015 801 41894 48274 1869 40622 39627 39204 36667 9540 8258 27127 13494 9790
shrinkage=0.05


Tree=12
num_leaves=31
num_cat=0
split_feature=233 178 49 68 113 807 108 18 39 83 474 310 838 55 268 164 333 14 123 378 469 9 101 66 181 38 643 620 100 632
split_gain=346.122 240.304 196.479 191.12 194.821 189.564 188.124 153.855 155.004 133.45 132.641 130.663 126.551 124.781 121.905 116.04 116.016 110.518 108.208 104.832 113.027 103.695 101.924 99.1228 101.817 98.7872 96.4643 96.7696 94.9353 94.889
threshold=9.9999996826552254e-21 9.9999996826552254e-21 9.9999996826552254e-21 9.9999996826552254e-21 9.9999996826552254e-21 9.9999996826552254e-21 9.9999996826552254e-21 9.9999996826552254e-21 9.9999996826552254e-21 9.9999996826552254e-21 9.9999996826552254e-21 9.9999996826552254e-21 9.9999996826552254e-21 9.9999996826552254e-21 9.9999996826552254e-21 9.9999996826552254e-21 9.9999996826552254e-21 9.9999996826552254e-21 9.9999996826552254e-21 9.9999996826552254e-21 9.9999996826552254e-21 9.9999996826552254e-21 9.9999996826552254e-21 9.9999996826552254e-21 9.9999996826552254e-21 9.9999996826552254e-21 9.9999996826552254e-21 9.9999996826552254e-21 9.9999996826552254e-21 9.9999996826552254e-21
decision_type=2 2 2 2 2 2 2 2 2 2 2 2 2 2 2 2 2 2 2 2 2 2 2 2 2 2 2 2 2 2
left_child=1 2 3 4 5 6 7 8 10 17 12 22 14 -8 15 16 18 -9 19 20 26 -15 -5 24 -4 -19 27 29 -10 -1
right_child=-2 -3 23 11 -6 -7 13 9 28 -11 -12 -13 -14 21 -16 -17 -18 25 -20 -21 -22 -23 -24 -25 -26 -27 -28 -29 -30 -31
leaf_value=-0.0023450340476076255 0.021522444678828054 0.020004169832348366 0.0033503629996001049 0.0095680007056545367 0.011651679927897 0.051809688945895584 0.014599795063698155 0.039674844468770704 -0.0076303233376200132 -0.0062666641529666297 0.030713762258443411 0.037080947179786126 -0.020895069049086751 0.0046679542062820125 -0.011809371961405963 0.016585957921060338 0.031683868673133601 0.0056998786091263338 0.014654990696548643 -0.01774439820741313 0.025437625842634589 -0.022755354853287457 -0.013384192658143529 0.023647347900162274 0.022935010063518172 -0.011349140426099006 0.032523369727962055 0.038796841435962258 -0.034009063999477257 0.021594179763241513
leaf_count=83546 1855 1454 7401 3675 2844 166 2890 226 10103 3328 307 382 897 1432 3074 861 257 10968 969 1064 375 454 557 791 729 921 201 144 353 416
internal_value=0 -0.00434699 -0.00856746 -0.0183891 -0.0257208 -0.031706 -0.0331498 -0.0410242 -0.0550349 0.0520297 -0.0419372 0.181501 -0.0441316 0.16142 -0.0404435 -0.0335929 -0.0372094 0.100752 -0.0391977 -0.0429529 -0.0390336 -0.0386683 0.130942 0.135009 0.10213 0.087583 -0.0414701 -0.0431237 -0.170418 -0.0445285
internal_count=142640 140785 139331 130410 125796 122952 122786 118010 102567 15443 92111 4614 91804 4776 90907 87833 86972 12115 86715 85746 84682 1886 4232 8921 8130 11889 84307 84106 10456 83962
shrinkage=0.05


Tree=13
num_leaves=31
num_cat=0
split_feature=125 236 39 109 790 31 9 158 24 493 220 140 136 264 81 108 922 31 77 174 340 595 15 377 55 620 166 32 168 357
split_gain=311.912 287.895 213.496 165.305 173.819 163.311 210.837 140.236 137.93 135.601 117.5 117.688 123.974 122.278 116.214 111.618 107.451 100.603 99.4005 93.1984 92.5106 99.1696 90.9357 89.1061 113.707 83.5758 83.0245 83.85 81.9123 81.5681
threshold=9.9999996826552254e-21 9.9999996826552254e-21 9.9999996826552254e-21 9.9999996826552254e-21 9.9999996826552254e-21 9.9999996826552254e-21 9.9999996826552254e-21 9.9999996826552254e-21 9.9999996826552254e-21 9.9999996826552254e-21 9.9999996826552254e-21 9.9999996826552254e-21 9.9999996826552254e-21 9.9999996826552254e-21 9.9999996826552254e-21 9.9999996826552254e-21 9.9999996826552254e-21 9.9999996826552254e-21 9.9999996826552254e-21 9.9999996826552254e-21 9.9999996826552254e-21 9.9999996826552254e-21 9.9999996826552254e-21 9.9999996826552254e-21 9.9999996826552254e-21 9.9999996826552254e-21 9.9999996826552254e-21 9.9999996826552254e-21 9.9999996826552254e-21 9.9999996826552254e-21
decision_type=2 2 2 2 2 2 2 2 2 2 2 2 2 2 2 2 2 2 2 2 2 2 2 2 2 2 2 2 2 2
left_child=1 2 3 4 5 9 8 14 10 20 11 12 13 15 18 22 26 -2 19 -8 21 25 23 -7 -25 28 29 -28 -1 -4
right_child=17 -3 16 -5 -6 6 7 -9 -10 -11 -12 -13 -14 -15 -16 -17 -18 -19 -20 -21 -22 -23 -24 24 -26 -27 27 -29 -30 -31
leaf_value=-0.0015258081970911897 0.023998861180233033 0.019064051088569355 -0.007489652724392489 0.011930307962542051 0.028172248968026527 0.0064424990581003335 -0.0056377596041184263 -0.022319341277009169 -0.024852169743382974 -0.018265882349427026 -0.0074115841123238435 -0.01815766848739166 -0.0053860316329664495 -0.012661176224977059 0.030169293024792911 0.016749262990448786 0.0232288456049103 -0.0093223389936436581 0.0064183773548369865 0.051868032643073041 -0.014542707435204831 0.018300176151516967 0.00037004275451725028 -0.016876688227649629 0.018291971457585807 0.036857000812758799 0.011120756047103365 -0.033264418134181684 0.021500623318611481 0.021568062147122053
leaf_count=39856 232 2100 13236 3438 577 36000 9216 928 425 1206 2264 581 3006 953 272 2082 325 9591 2297 71 1272 665 8888 865 313 144 1083 118 390 246
internal_value=0 0.0139592 0.00805812 0.0226129 0.0159987 0.0131707 0.0437293 -0.0720248 0.0704516 -0.0346759 0.0748406 0.084426 0.0894166 0.101485 -0.0427225 0.108506 -0.104157 -0.170707 -0.0578936 -0.103962 -0.0252551 -0.0170261 0.0982703 0.119994 -0.150644 -0.0233325 -0.116746 0.135197 -0.0260535 -0.139189
internal_count=142640 132817 130717 115709 112271 111694 68161 12784 55377 43533 54952 52688 52107 49101 11856 48148 15008 9823 11584 9287 42327 41055 46066 37178 1178 40390 14683 1201 40246 13482
shrinkage=0.05


Tree=14
num_leaves=31
num_cat=0
split_feature=238 125 39 178 790 113 69 72 80 35 474 493 922 333 9 807 325 174 9 158 33 44 31 24 224 67 211 65 193 51
split_gain=295.445 272.233 192.619 158.635 135.871 136.317 126.061 126.244 119.742 116.316 113.118 108.1 96.7885 93.1854 88.9914 87.3356 93.6755 86.2734 102.382 135.724 100.007 116.924 96.5048 118.205 115.529 104.072 111.713 92.848 86.0906 83.2557
threshold=9.9999996826552254e-21 9.9999996826552254e-21 9.9999996826552254e-21 9.9999996826552254e-21 9.9999996826552254e-21 9.9999996826552254e-21 9.9999996826552254e-21 9.9999996826552254e-21 9.9999996826552254e-21 9.9999996826552254e-21 9.9999996826552254e-21 9.9999996826552254e-21 9.9999996826552254e-21 9.9999996826552254e-21 9.9999996826552254e-21 9.9999996826552254e-21 9.9999996826552254e-21 9.9999996826552254e-21 9.9999996826552254e-21 9.9999996826552254e-21 9.9999996826552254e-21 9.9999996826552254e-21 9.9999996826552254e-21 9.9999996826552254e-21 9.9999996826552254e-21 9.9999996826552254e-21 9.9999996826552254e-21 9.9999996826552254e-21 9.9999996826552254e-21 9.9999996826552254e-21
decision_type=2 2 2 2 2 2 2 2 2 2 2 2 2 2 2 2 2 2 2 2 2 2 2 2 2 2 2 2 2 2
left_child=1 2 3 4 5 6 7 8 10 -9 11 13 -4 15 -3 17 -17 18 22 20 21 -20 28 24 25 -24 27 -27 -1 -22
right_child=-2 14 12 -5 -6 -7 -8 9 -10 -11 -12 -13 -14 -15 -16 16 -18 -19 19 -21 29 -23 23 -25 -26 26 -28 -29 -30 -31
leaf_value=-0.0022064205602297547 0.020607967571255291 -0.0087435789953680676 -0.0055188188367096096 0.017694232414123563 0.020296215382404628 0.011716644871934931 0.015267494292790399 0.00043796057842612388 0.0077970726839904497 0.024314379251447325 0.03059847419503366 -0.014887324285055882 0.022067402430810037 0.029843751274969733 0.036483765308829873 -0.0089166730934498364 0.052399308744352315 0.014355378802908334 -0.0080200591057054856 -0.025241836034972733 -9.1699545241709683e-05 0.0097441752405849416 0.0023183556826735247 -0.024835230923118293 0.022060555975413187 -0.008489289220849093 0.055483358365961834 0.017640823909260719 0.014447261168853432 0.018378551143593228
leaf_count=34277 1728 9681 14689 1422 895 2759 1420 1002 4755 1039 295 1273 325 257 110 102 160 984 8820 732 4492 1035 43010 419 696 4320 74 369 794 706
internal_value=0 -0.00385987 0.00815098 0.0219336 0.0178177 0.0147651 0.00930907 0.00547389 0.000799187 0.251852 -0.00637585 -0.00815513 -0.0984335 -0.00451404 -0.164709 -0.00604446 0.570564 -0.00754425 -0.0104511 -0.08434 -0.0638921 -0.123088 0.00344068 0.032156 0.0367279 0.030835 -0.109421 -0.12866 -0.0365877 0.0483391
internal_count=142640 140912 131121 116107 114685 113790 111031 109611 107570 2041 102815 102520 15014 101247 9791 100990 262 100728 99744 15785 15053 9855 83959 48888 48469 47773 4763 4689 35071 5198
shrinkage=0.05


Tree=15
num_leaves=31
num_cat=0
split_feature=125 363 109 140 59 838 72 108 55 100 164 502 474 14 181 14 77 790 220 9 764 113 260 19 664 9 19 653 67 1275
split_gain=268.302 243.764 189.938 178.015 127.409 124.039 112.482 107.576 174.642 129.448 105.774 105.096 106.356 103.139 101.636 122.33 101.403 98.6831 93.4087 83.9421 83.2837 82.2237 82.0775 81.0099 79.0748 75.5272 75.3262 74.8017 76.0011 97.8285
threshold=9.9999996826552254e-21 9.9999996826552254e-21 9.9999996826552254e-21 9.9999996826552254e-21 9.9999996826552254e-21 9.9999996826552254e-21 9.9999996826552254e-21 9.9999996826552254e-21 9.9999996826552254e-21 9.9999996826552254e-21 9.9999996826552254e-21 9.9999996826552254e-21 9.9999996826552254e-21 9.9999996826552254e-21 9.9999996826552254e-21 9.9999996826552254e-21 9.9999996826552254e-21 9.9999996826552254e-21 9.9999996826552254e-21 9.9999996826552254e-21 9.9999996826552254e-21 9.9999996826552254e-21 9.9999996826552254e-21 9.9999996826552254e-21 9.9999996826552254e-21 9.9999996826552254e-21 9.9999996826552254e-21 9.9999996826552254e-21 9.9999996826552254e-21 9.9999996826552254e-21
decision_type=2 2 2 2 2 2 2 2 2 2 2 2 2 2 2 2 2 2 2 2 2 2 2 2 2 2 2 2 2 2
left_child=1 2 3 4 5 6 7 9 13 10 11 12 17 -9 -8 -16 -2 20 -6 26 21 22 24 -21 27 -10 -11 28 29 -1
right_child=16 -3 -4 -5 18 -7 14 8 25 19 -12 -13 -14 -15 15 -17 -18 -19 -20 23 -22 -23 -24 -25 -26 -27 -28 -29 -30 -31
leaf_value=-0.00026964782734613689 -0.0087414064859413342 0.022118342480958404 0.011810993900831693 -0.011087320848610976 0.01284855174617254 -0.018531339636778315 0.0046948374268410385 -0.009625218012816017 0.0012847743713929598 -0.0059822449765445929 0.015862119328788955 0.01540425148132914 0.025024372055792856 0.018402521428724193 -0.0071790122264345363 0.04340305677167984 0.030326806521043182 0.022414196207349871 -0.032435236724109209 -0.0083273482933496484 0.042403646233796548 0.01077710738295525 0.020268093749222445 -0.027520960121681648 0.03715377355905345 -0.021652893506856674 0.018688567521077209 -0.016040207619810631 -0.0057885252551477572 -0.024144190251546332
leaf_count=96170 9647 1291 3480 3538 2646 892 1459 376 1372 1512 1042 1076 413 2584 166 427 169 472 119 1591 113 1580 464 840 137 486 389 805 6953 431
internal_value=0 0.00995198 0.00570782 -0.000556634 0.00572831 0.000907685 0.00364982 -0.000359522 0.146004 -0.00654597 0.000152041 -0.00289 -0.00600154 0.296845 0.235781 0.58487 -0.161376 -0.00795421 0.217993 -0.176093 -0.00997333 -0.0108834 -0.0142919 -0.299189 -0.0161553 -0.0943014 -0.0186776 -0.017152 -0.0147915 -0.00752335
internal_count=142640 132824 131533 128053 124515 121750 120858 118806 4818 113988 109656 108614 107538 2960 2052 593 9816 107125 2765 4332 106653 106540 104960 2431 104496 1858 1901 104359 103554 96601
shrinkage=0.05


Tree=16
num_leaves=31
num_cat=0
split_feature=125 241 109 498 31 224 73 37 108 100 181 493 38 65 247 88 220 87 166 333 33 55 168 39 340 595 18 412 103 764
split_gain=242.143 229.412 170.656 149.444 134.281 127.502 123.123 127.758 123.988 116.959 116.876 110.184 121.273 107.146 96.791 93.6412 117.843 106.173 97.8389 92.2446 83.814 83.6729 82.8016 82.3685 80.0753 81.5284 78.1692 78.159 75.8458 75.7916
threshold=9.9999996826552254e-21 9.9999996826552254e-21 9.9999996826552254e-21 9.9999996826552254e-21 9.9999996826552254e-21 9.9999996826552254e-21 9.9999996826552254e-21 9.9999996826552254e-21 9.9999996826552254e-21 9.9999996826552254e-21 9.9999996826552254e-21 9.9999996826552254e-21 9.9999996826552254e-21 9.9999996826552254e-21 9.9999996826552254e-21 9.9999996826552254e-21 9.9999996826552254e-21 9.9999996826552254e-21 9.9999996826552254e-21 9.9999996826552254e-21 9.9999996826552254e-21 9.9999996826552254e-21 9.9999996826552254e-21 9.9999996826552254e-21 9.9999996826552254e-21 9.9999996826552254e-21 9.9999996826552254e-21 9.9999996826552254e-21 9.9999996826552254e-21 9.9999996826552254e-21
decision_type=2 2 2 2 2 2 2 2 2 2 2 2 2 2 2 2 2 2 2 2 2 2 2 2 2 2 2 2 2 2
left_child=1 2 3 4 11 6 8 -8 9 13 -9 12 22 14 15 17 -17 18 19 23 -2 -10 24 26 25 -1 28 -26 29 -6
right_child=20 -3 -4 -5 5 -7 7 10 21 -11 -12 -13 -14 -15 -16 16 -18 -19 -20 -21 -22 -23 -24 -25 27 -27 -28 -29 -30 -31
leaf_value=-0.00076837600376241961 -0.0085484678165882438 0.024788298283975385 0.011220444230150015 -0.019016442702492562 -0.0007140089034654919 0.022749220666409071 0.0023468134153128498 0.010742096591749781 0.016053481925651401 -0.0074817712395824527 0.048947249809642893 -0.016842998178230494 -0.0089247541017735531 0.01634233304072754 0.030923174829327299 0.0091281076396068986 -0.020359159048626219 0.017187366395515137 0.0096606091271615839 0.029142205874220686 0.01650585359395778 -0.004295992725740441 0.022656384749995873 -0.0067808514140555417 -0.019912679875988847 0.015846043120488058 0.0088218204564987513 0.0097420274688073735 0.046656308927956747 0.040283463725539967
leaf_count=43932 9470 963 3480 1025 47510 700 1009 417 2153 4234 385 1188 4895 1132 266 4899 364 898 2440 260 346 660 378 5073 984 751 2343 287 85 113
internal_value=0 0.00945438 0.00590278 -2.0226e-05 0.00304061 0.0301966 0.0261914 0.283734 0.0197519 0.0114351 0.58165 -0.035786 -0.0288038 0.0218655 0.0164922 0.0139897 0.141774 0.00253691 -0.00276204 -0.0113959 -0.153307 0.22558 -0.0129888 -0.0141987 -0.0168229 -0.00978265 -0.00189216 -0.264329 -0.0106501 -0.0123346
internal_count=142640 132824 131861 128381 127356 74941 74241 1811 72430 69617 802 52415 51227 65383 64251 63985 5263 58722 57824 55384 9816 2813 46332 55124 45954 44683 50051 1271 47708 47623
shrinkage=0.05


Tree=17
num_leaves=31
num_cat=0
split_feature=238 125 109 140 442 72 225 108 55 100 81 790 67 838 44 474 502 77 77 211 1275 414 35 14 699 632 49 18 32 657
split_gain=228.744 211.931 155.265 149.635 109.861 106.355 99.7702 99.2041 149.021 100.092 115.578 150.837 99.0015 97.2985 96.975 94.0714 92.0306 88.0294 87.7321 87.6112 85.4372 87.9446 84.4506 81.4016 80.4379 77.0956 76.2288 86.474 74.7551 134.582
threshold=9.9999996826552254e-21 9.9999996826552254e-21 9.9999996826552254e-21 9.9999996826552254e-21 9.9999996826552254e-21 9.9999996826552254e-21 9.9999996826552254e-21 9.9999996826552254e-21 9.9999996826552254e-21 9.9999996826552254e-21 9.9999996826552254e-21 9.9999996826552254e-21 9.9999996826552254e-21 9.9999996826552254e-21 9.9999996826552254e-21 9.9999996826552254e-21 9.9999996826552254e-21 9.9999996826552254e-21 9.9999996826552254e-21 9.9999996826552254e-21 9.9999996826552254e-21 9.9999996826552254e-21 9.9999996826552254e-21 9.9999996826552254e-21 9.9999996826552254e-21 9.9999996826552254e-21 9.9999996826552254e-21 9.9999996826552254e-21 9.9999996826552254e-21 9.9999996826552254e-21
decision_type=2 2 2 2 2 2 2 2 2 2 2 2 2 2 2 2 2 2 2 2 2 2 2 2 2 2 2 2 2 2
left_child=1 2 3 4 5 6 7 9 23 10 11 12 13 15 -8 16 20 -3 26 -14 21 24 -7 -9 25 28 27 -12 -1 -30
right_child=-2 17 -4 -5 -6 22 14 8 -10 -11 18 -13 19 -15 -16 -17 -18 -19 -20 -21 -22 -23 -24 -25 -26 -27 -28 -29 29 -31
leaf_value=-0.00086918456614521562 0.017971770531219521 -0.0080311743925253146 0.0106465264371938 -0.010198472445474546 0.013372231791056189 0.00097105124431580219 0.022904785206869435 -0.007744025128058993 -0.0043444170606704085 -0.0080092943780985699 0.0012030970749925766 0.031452215269533665 -0.0078492440074582025 -0.016783364633758107 -0.022088195836660288 0.023617465388831475 0.014295759935518113 0.028370624749794515 0.033881205152407765 0.058640364706516269 -0.022745258508197894 -0.018830428209766978 0.020976857798552431 0.016898958338296265 -0.024229933556246884 0.021785083371109532 0.035063005039044678 0.023179795118102725 0.0034454442354365576 -0.032023154753808153
leaf_count=79710 1733 9618 3479 3538 1570 1033 795 385 1859 4335 3294 366 5434 892 141 413 1069 169 299 50 428 640 1078 2586 348 399 211 518 15978 272
internal_value=0 -0.00610003 0.00449548 -0.00118566 0.00459542 0.00122757 -0.00267315 -0.00522072 0.135168 -0.0111347 -0.00527784 -0.0118136 -0.0140341 -0.00687026 0.32254 -0.00391544 -0.00590541 -0.148052 0.155016 -0.144861 -0.00909597 -0.0071359 0.223744 0.274111 -0.00469076 -0.00295757 0.116174 0.0837887 -0.00478151 0.0570351
internal_count=142640 140907 131120 127641 124103 122533 120422 119486 4830 114656 110321 105999 105633 100149 936 99257 98844 9787 4322 5484 97775 97347 2111 2971 96707 96359 4023 3812 95960 16250
shrinkage=0.05


Tree=18
num_leaves=31
num_cat=0
split_feature=175 178 125 498 311 113 72 910 164 260 38 838 502 225 44 442 9 35 46 173 745 56 247 41 699 221 664 414 30 14
split_gain=201.393 201.922 193.092 133.366 128.274 100.279 100.72 100.625 97.1212 98.2679 104.269 89.6052 87.0572 85.9628 87.7111 87.102 83.6543 76.7717 72.0801 71.1813 69.1215 70.5473 161.612 116.015 70.3945 68.3347 67.0552 65.6259 87.7225 205.79
threshold=9.9999996826552254e-21 9.9999996826552254e-21 9.9999996826552254e-21 9.9999996826552254e-21 9.9999996826552254e-21 9.9999996826552254e-21 9.9999996826552254e-21 9.9999996826552254e-21 9.9999996826552254e-21 9.9999996826552254e-21 9.9999996826552254e-21 9.9999996826552254e-21 9.9999996826552254e-21 9.9999996826552254e-21 9.9999996826552254e-21 9.9999996826552254e-21 9.9999996826552254e-21 9.9999996826552254e-21 9.9999996826552254e-21 9.9999996826552254e-21 9.9999996826552254e-21 9.9999996826552254e-21 9.9999996826552254e-21 9.9999996826552254e-21 9.9999996826552254e-21 9.9999996826552254e-21 9.9999996826552254e-21 9.9999996826552254e-21 9.9999996826552254e-21 9.9999996826552254e-21
decision_type=2 2 2 2 2 2 2 2 2 2 2 2 2 2 2 2 2 2 2 2 2 2 2 2 2 2 2 2 2 2
left_child=1 2 3 4 5 6 7 8 9 10 11 12 13 15 -15 19 25 -8 -3 20 21 24 23 -23 26 -4 27 28 -1 -30
right_child=-2 18 16 -5 -6 -7 17 -9 -10 -11 -12 -13 -14 14 -16 -17 -18 -19 -20 -21 -22 22 -24 -25 -26 -27 -28 -29 29 -31
leaf_value=0.0033836576225376117 0.015813504271342992 0.0094317969370997339 -0.006431327549852337 -0.017945994945367937 0.031928244005607391 0.0093836293852184883 0.00094260926519644343 0.029362476296036652 0.014774288131343558 0.021325295464840101 -0.0054439495303187351 -0.015944196653422889 0.01418653267626597 0.021888132023626758 -0.021305419965613661 0.011780156532967359 0.036479634979817398 0.020018006739448067 0.032480171268467507 0.029040798994109912 -0.023947047260382281 0.00024688748154564456 0.035490280078062098 -0.011542460034751748 -0.021838788685665744 -0.021003367001375131 0.035624429786747153 -0.013699538830946276 -0.0040790608080753504 0.0012547112433186197
leaf_count=16684 1966 870 8749 1025 317 2834 1031 285 1048 513 10195 892 1066 761 139 1472 108 1080 556 204 314 3966 242 4404 370 886 132 871 27753 51907
internal_value=0 -0.0060181 -0.00985209 0.000361791 0.0032281 0.00165665 -0.00254963 -0.00626019 -0.00763614 -0.0102425 -0.0120885 -0.00321271 -0.000659519 -0.00343523 0.304343 -0.00599249 -0.145616 0.214034 0.368368 -0.00932088 -0.0104498 -0.00906627 -0.0958318 -0.119125 -0.00141944 -0.155426 0.00023528 -0.000731828 0.00173858 -0.0120708
internal_count=142640 140674 139248 129505 128480 128163 125329 123218 122933 121885 121372 111177 110285 109219 900 108319 9743 2111 1426 106847 106643 106329 8612 8370 97717 9635 97347 97215 96344 79660
shrinkage=0.05


Tree=19
num_leaves=31
num_cat=0
split_feature=238 264 178 49 68 807 113 474 378 498 310 101 469 164 502 108 55 333 123 159 52 220 144 14 265 29 9 273 632 764
split_gain=188.671 172.21 151.862 133.527 124.86 119.41 116.356 110.59 104.749 104.974 104.114 115.973 98.4257 97.861 85.3508 87.1375 86.1327 82.9003 82.6147 80.9258 90.5335 112.813 79.4355 118.367 77.239 80.829 76.6766 76.34 75.5016 73.1323
threshold=9.9999996826552254e-21 9.9999996826552254e-21 9.9999996826552254e-21 9.9999996826552254e-21 9.9999996826552254e-21 9.9999996826552254e-21 9.9999996826552254e-21 9.9999996826552254e-21 9.9999996826552254e-21 9.9999996826552254e-21 9.9999996826552254e-21 9.9999996826552254e-21 9.9999996826552254e-21 9.9999996826552254e-21 9.9999996826552254e-21 9.9999996826552254e-21 9.9999996826552254e-21 9.9999996826552254e-21 9.9999996826552254e-21 9.9999996826552254e-21 9.9999996826552254e-21 9.9999996826552254e-21 9.9999996826552254e-21 9.9999996826552254e-21 9.9999996826552254e-21 9.9999996826552254e-21 9.9999996826552254e-21 9.9999996826552254e-21 9.9999996826552254e-21 9.9999996826552254e-21
decision_type=2 2 2 2 2 2 2 2 2 2 2 2 2 2 2 2 2 2 2 2 2 2 2 2 2 2 2 2 2 2
left_child=1 2 3 4 5 6 7 8 9 12 11 -6 13 14 15 17 -17 18 22 20 21 -5 28 -24 -3 -26 -18 -27 29 -1
right_child=-2 24 -4 19 10 -7 -8 -9 -10 -11 -12 -13 -14 -15 -16 16 26 -19 -20 -21 -22 -23 23 -25 25 27 -28 -29 -30 -31
leaf_value=-0.0017138712359845961 0.016322331300044079 -0.023298332931785293 0.015940064463205058 0.012404494514161465 0.0085218822917421163 0.041616892478584001 0.0091045689933738471 0.02840367346381148 -0.016473627939029373 -0.017048695807856305 0.032382609667790045 -0.015199060815515524 0.024700273034148425 0.015676259582894082 0.012792592946568662 0.010678967021854157 0.0028730487511699284 0.026433548203071033 0.013119264924475869 -0.025079523777400237 -0.00019342840817404921 -0.016952935425032463 -0.01322495540488477 0.028559280443772841 -0.0095507760612445342 0.049406473042772098 -0.020110241911571007 -0.0082402973233403325 0.019298855280311857 0.038531655786905143
leaf_count=105641 1733 970 1478 5032 3686 165 2813 315 1121 1025 384 599 372 867 1082 2910 1424 263 936 207 3135 350 2466 182 2223 119 487 111 431 113
internal_value=0 -0.00553057 -1.43605e-05 -0.00347898 -0.0116821 -0.017794 -0.0189395 -0.0236664 -0.0252286 -0.0223431 0.148821 0.104119 -0.0195558 -0.0211915 -0.0236946 -0.0263281 0.105262 -0.0320937 -0.0334372 0.116204 0.131219 0.209907 -0.0359814 -0.207062 -0.227088 -0.132627 -0.0596804 0.431713 -0.0317151 -0.0334174
internal_count=142640 140907 137484 136006 127282 122613 122448 119635 119320 118199 4669 4285 117174 116802 115935 114853 4821 110032 109769 8724 8517 5382 108833 2648 3423 2453 1911 230 106185 105754
shrinkage=0.05


Tree=20
num_leaves=31
num_cat=0
split_feature=264 235 33 9 178 73 68 123 310 146 807 113 378 211 59 315 144 764 318 35 643 31 487 377 785 78 56 24 38 231
split_gain=177.575 159.029 143.688 137.589 125.885 120.11 111.318 138.585 96.8843 94.8617 88.6541 82.2557 78.7254 78.57 78.5231 76.8301 75.6449 74.3643 71.0525 70.1033 69.7913 69.2058 79.0594 70.6221 69.1439 67.8389 77.6553 70.2916 127.392 80.8546
threshold=9.9999996826552254e-21 9.9999996826552254e-21 9.9999996826552254e-21 9.9999996826552254e-21 9.9999996826552254e-21 9.9999996826552254e-21 9.9999996826552254e-21 9.9999996826552254e-21 9.9999996826552254e-21 9.9999996826552254e-21 9.9999996826552254e-21 9.9999996826552254e-21 9.9999996826552254e-21 9.9999996826552254e-21 9.9999996826552254e-21 9.9999996826552254e-21 9.9999996826552254e-21 9.9999996826552254e-21 9.9999996826552254e-21 9.9999996826552254e-21 9.9999996826552254e-21 9.9999996826552254e-21 9.9999996826552254e-21 9.9999996826552254e-21 9.9999996826552254e-21 9.9999996826552254e-21 9.9999996826552254e-21 9.9999996826552254e-21 9.9999996826552254e-21 9.9999996826552254e-21
decision_type=2 2 2 2 2 2 2 2 2 2 2 2 2 2 2 2 2 2 2 2 2 2 2 2 2 2 2 2 2 2
left_child=1 2 3 6 5 14 7 9 13 10 11 12 17 -8 15 21 -11 18 20 -13 24 -4 23 -23 -1 27 -27 29 -29 -5
